{"learner":{"attributes":{"scikit_learn":"{\"_estimator_type\": \"classifier\"}"},"feature_names":["age","heart_rate","systolic_blood_pressure","oxygen_saturation","body_temperature","pain_level","chronic_disease_count","previous_er_visits"],"feature_types":["float","float","float","float","float","int","int","int"],"gradient_booster":{"model":{"cats":{"enc":[],"feature_segments":[],"sorted_idx":[]},"gbtree_model_param":{"num_parallel_tree":"1","num_trees":"400"},"iteration_indptr":[0,4,8,12,16,20,24,28,32,36,40,44,48,52,56,60,64,68,72,76,80,84,88,92,96,100,104,108,112,116,120,124,128,132,136,140,144,148,152,156,160,164,168,172,176,180,184,188,192,196,200,204,208,212,216,220,224,228,232,236,240,244,248,252,256,260,264,268,272,276,280,284,288,292,296,300,304,308,312,316,320,324,328,332,336,340,344,348,352,356,360,364,368,372,376,380,384,388,392,396,400],"tree_info":[0,1,2,3,0,1,2,3,0,1,2,3,0,1,2,3,0,1,2,3,0,1,2,3,0,1,2,3,0,1,2,3,0,1,2,3,0,1,2,3,0,1,2,3,0,1,2,3,0,1,2,3,0,1,2,3,0,1,2,3,0,1,2,3,0,1,2,3,0,1,2,3,0,1,2,3,0,1,2,3,0,1,2,3,0,1,2,3,0,1,2,3,0,1,2,3,0,1,2,3,0,1,2,3,0,1,2,3,0,1,2,3,0,1,2,3,0,1,2,3,0,1,2,3,0,1,2,3,0,1,2,3,0,1,2,3,0,1,2,3,0,1,2,3,0,1,2,3,0,1,2,3,0,1,2,3,0,1,2,3,0,1,2,3,0,1,2,3,0,1,2,3,0,1,2,3,0,1,2,3,0,1,2,3,0,1,2,3,0,1,2,3,0,1,2,3,0,1,2,3,0,1,2,3,0,1,2,3,0,1,2,3,0,1,2,3,0,1,2,3,0,1,2,3,0,1,2,3,0,1,2,3,0,1,2,3,0,1,2,3,0,1,2,3,0,1,2,3,0,1,2,3,0,1,2,3,0,1,2,3,0,1,2,3,0,1,2,3,0,1,2,3,0,1,2,3,0,1,2,3,0,1,2,3,0,1,2,3,0,1,2,3,0,1,2,3,0,1,2,3,0,1,2,3,0,1,2,3,0,1,2,3,0,1,2,3,0,1,2,3,0,1,2,3,0,1,2,3,0,1,2,3,0,1,2,3,0,1,2,3,0,1,2,3,0,1,2,3,0,1,2,3,0,1,2,3,0,1,2,3,0,1,2,3,0,1,2,3,0,1,2,3,0,1,2,3,0,1,2,3,0,1,2,3,0,1,2,3,0,1,2,3,0,1,2,3,0,1,2,3],"trees":[{"base_weights":[-1.5261165E-6,-5.769333E-1,1.4951571E0,-5.7722825E-1,-6.592311E-2,1.7887094E0,-5.1151395E-1,-5.8261603E-1,-5.3431827E-1,-8.912832E-2,5.9363503E-2,9.2509204E-1,2.7818449E0,-1.6095972E-1,-5.2704537E-1,-1.7488562E-1,-1.7095089E-1,-4.5560103E-2,-5.4149234E-1,1.9468252E-1,1.9789132E0,4.032845E-1,3.0462878E0,-3.7297198E-1,2.0785533E-1,-1.0635161E-1,-5.326152E-1,5.9363503E-2,-1.13125846E-1,-1.3011105E-1,3.5455433E-1,-1.6381149E-1,-2.6010913E-1,-1.4850889E-1,1.392503E0,9.9319357E-1,2.7193036E0,8.494221E-1,-6.852107E-2,3.1139119E0,1.4946804E0,5.9363503E-2,-1.4871879E-1,5.9363503E-2,-9.892096E-2,-1.6575226E-1,-4.1845107E-1,-5.4271133E-3,2.0785533E-1,2.0785533E-1,-1.5078142E-1,1.701155E-1,-1.0606452E-1,6.345017E-2,5.779912E-1,6.607554E-1,9.982645E-2,8.888183E-1,4.0670815E-1,6.060179E-1,-9.282736E-2,9.4961375E-1,6.389951E-1,8.4421873E-1,-7.076667E-2,-1.5339799E-1,-3.0557258E-2],"categories":[],"categories_nodes":[],"categories_segments":[],"categories_sizes":[],"default_left":[0,0,0,0,0,0,0,0,0,0,0,0,0,0,0,0,0,0,0,0,0,0,0,0,0,0,0,0,0,0,0,0,0,0,0,0,0,0,0,0,0,0,0,0,0,0,0,0,0,0,0,0,0,0,0,0,0,0,0,0,0,0,0,0,0,0,0],"id":0,"left_children":[1,3,5,7,9,11,13,15,17,-1,-1,19,21,23,25,-1,27,29,31,33,35,37,39,41,-1,43,45,-1,-1,-1,47,-1,49,51,53,55,57,-1,59,61,63,-1,-1,-1,-1,-1,65,-1,-1,-1,-1,-1,-1,-1,-1,-1,-1,-1,-1,-1,-1,-1,-1,-1,-1,-1,-1],"loss_changes":[3.9622964E3,4.613037E-1,7.542927E2,4.5458984E-1,2.4421607E-1,9.5456177E2,8.0805206E-1,3.0584717E-1,1.3132858E0,0E0,0E0,4.6021063E2,3.2493848E2,1.7784743E0,3.1029892E-1,0E0,3.6397186E-1,1.1805837E0,3.3889008E-1,1.4595111E2,1.759986E2,6.095211E1,4.42959E1,6.150421E-1,0E0,2.892251E-1,1.1922073E-1,0E0,0E0,0E0,4.9231794E-1,0E0,2.170853E0,4.0765785E1,4.9460876E1,8.440882E1,4.2206177E1,0E0,2.345966E1,1.5848633E1,4.954035E1,0E0,0E0,0E0,0E0,0E0,7.4234915E-1,0E0,0E0,0E0,0E0,0E0,0E0,0E0,0E0,0E0,0E0,0E0,0E0,0E0,0E0,0E0,0E0,0E0,0E0,0E0,0E0],"parents":[2147483647,0,0,1,1,2,2,3,3,4,4,5,5,6,6,7,7,8,8,11,11,12,12,13,13,14,14,16,16,17,17,18,18,19,19,20,20,21,21,22,22,23,23,25,25,26,26,30,30,32,32,33,33,34,34,35,35,36,36,38,38,39,39,40,40,46,46],"right_children":[2,4,6,8,10,12,14,16,18,-1,-1,20,22,24,26,-1,28,30,32,34,36,38,40,42,-1,44,46,-1,-1,-1,48,-1,50,52,54,56,58,-1,60,62,64,-1,-1,-1,-1,-1,66,-1,-1,-1,-1,-1,-1,-1,-1,-1,-1,-1,-1,-1,-1,-1,-1,-1,-1,-1,-1],"split_conditions":[5E0,1.727E2,8E0,4E0,4.12E1,6E0,1.346E2,3.886E1,1.63E1,-8.912832E-2,5.9363503E-2,3.787E1,8.86E1,1.336E2,9.21E1,-1.7488562E-1,3.89E1,1.33E2,1.612E2,9.81E1,9.27E1,7E0,1.228E2,1.027E2,2.0785533E-1,5.51E1,8.44E1,5.9363503E-2,-1.13125846E-1,-1.3011105E-1,1.21E1,-1.6381149E-1,6.89E1,9.37E1,1.284E2,9.36E1,9.6E1,8.494221E-1,1.007E2,3.924E1,3.875E1,5.9363503E-2,-1.4871879E-1,5.9363503E-2,-9.892096E-2,-1.6575226E-1,3.96E1,-5.4271133E-3,2.0785533E-1,2.0785533E-1,-1.5078142E-1,1.701155E-1,-1.0606452E-1,6.345017E-2,5.779912E-1,6.607554E-1,9.982645E-2,8.888183E-1,4.0670815E-1,6.060179E-1,-9.282736E-2,9.4961375E-1,6.389951E-1,8.4421873E-1,-7.076667E-2,-1.5339799E-1,-3.0557258E-2],"split_indices":[5,2,5,5,0,5,2,4,0,0,0,4,3,2,1,0,4,2,2,1,1,5,1,1,0,0,0,0,0,0,0,0,1,3,2,3,3,0,1,4,4,0,0,0,0,0,4,0,0,0,0,0,0,0,0,0,0,0,0,0,0,0,0,0,0,0,0],"split_type":[0,0,0,0,0,0,0,0,0,0,0,0,0,0,0,0,0,0,0,0,0,0,0,0,0,0,0,0,0,0,0,0,0,0,0,0,0,0,0,0,0,0,0,0,0,0,0,0,0,0,0,0,0,0,0,0,0,0,0,0,0,0,0,0,0,0,0],"sum_hessian":[4.5914097E3,3.3134673E3,1.2779424E3,3.3114268E3,2.0406265E0,1.1149473E3,1.6299504E2,2.9308499E3,3.8057684E2,1.0203133E0,1.0203133E0,5.9739343E2,5.175539E2,7.397271E0,1.5559778E2,2.928044E3,2.8058615E0,5.611723E0,3.7496512E2,3.5353854E2,2.4385487E2,5.2035976E1,4.655179E2,6.376958E0,1.0203133E0,2.2957048E0,1.5330206E2,1.0203133E0,1.7855482E0,2.8058615E0,2.8058615E0,3.68078E2,6.8871145E0,2.754846E2,7.805396E1,1.05602425E2,1.3825244E2,7.6523495E0,4.438363E1,4.4511166E2,2.0406265E1,1.0203133E0,5.3566446E0,1.0203133E0,1.2753916E0,1.2728408E2,2.6017988E1,1.7855482E0,1.0203133E0,1.0203133E0,5.8668013E0,6.096372E1,2.1452086E2,2.4742596E1,5.3311367E1,3.64762E1,6.912622E1,1.1631571E2,2.1936735E1,3.8261747E0,4.0557453E1,4.208792E2,2.423244E1,1.1223446E1,9.182819E0,1.964103E1,6.376958E0],"tree_param":{"num_deleted":"0","num_feature":"8","num_nodes":"67","size_leaf_vector":"1"}},{"base_weights":[-8.552957E-6,-3.6421874E-1,2.9217935E0,5.8067765E0,-4.5683062E-1,-2.0504297E-1,8.195604E0,-4.831314E-1,2.3007958E0,2.1455708E-1,-1.3472055E-1,1.8303631E-1,2.6197183E0,-4.948501E-1,1.4019268E0,-1.8023226E-1,4.0409346E0,-5.1772535E-1,-7.009077E-2,-3.2736653E-1,1.4547257E0,1.2350344E-1,-1.2968612E-1,5.9135175E0,9.001567E-1,-1.5707347E-1,-1.1968903E-1,-1.0350454E-1,2.4753746E-1,-1.3406664E-1,6.714493E-2,5.8783776E-1,1.9751197E0,-1.1324135E-1,8.042057E-1],"categories":[],"categories_nodes":[],"categories_segments":[],"categories_sizes":[],"default_left":[0,0,0,0,0,0,0,0,0,0,0,0,0,0,0,0,0,0,0,0,0,0,0,0,0,0,0,0,0,0,0,0,0,0,0],"id":1,"left_children":[1,3,-1,5,7,9,11,13,15,-1,-1,-1,-1,17,19,21,23,25,27,29,-1,-1,-1,31,33,-1,-1,-1,-1,-1,-1,-1,-1,-1,-1],"loss_changes":[6.015333E3,9.3688824E2,0E0,3.4983813E2,1.1798596E2,2.0883176E0,6.541406E1,3.5973206E1,6.7204216E1,0E0,0E0,0E0,0E0,1.539267E1,6.196071E1,1.267789E0,4.815428E1,8.383789E-1,2.0540865E1,6.0604584E-1,0E0,0E0,0E0,1.7194824E0,1.1421236E1,0E0,0E0,0E0,0E0,0E0,0E0,0E0,0E0,0E0,0E0],"parents":[2147483647,0,0,1,1,3,3,4,4,5,5,6,6,7,7,8,8,13,13,14,14,15,15,16,16,17,17,18,18,19,19,23,23,24,24],"right_children":[2,4,-1,6,8,10,12,14,16,-1,-1,-1,-1,18,20,22,24,26,28,30,-1,-1,-1,32,34,-1,-1,-1,-1,-1,-1,-1,-1,-1,-1],"split_conditions":[8E0,8.86E1,2.9217935E0,7E0,3.924E1,1.294E2,9.84E1,1.228E2,7E0,2.1455708E-1,-1.3472055E-1,1.8303631E-1,2.6197183E0,7E0,3.867E1,9.3E1,9.2E1,6E0,1.582E2,1.582E2,1.4547257E0,1.2350344E-1,-1.2968612E-1,1.048E2,1.574E2,-1.5707347E-1,-1.1968903E-1,-1.0350454E-1,2.4753746E-1,-1.3406664E-1,6.714493E-2,5.8783776E-1,1.9751197E0,-1.1324135E-1,8.042057E-1],"split_indices":[5,3,0,5,4,2,1,1,5,0,0,0,0,5,4,1,3,5,2,2,0,0,0,1,2,0,0,0,0,0,0,0,0,0,0],"split_type":[0,0,0,0,0,0,0,0,0,0,0,0,0,0,0,0,0,0,0,0,0,0,0,0,0,0,0,0,0,0,0,0,0,0,0],"sum_hessian":[1.693817E3,1.6336865E3,6.0130505E1,2.3242933E1,1.6104436E3,6.869369E0,1.6373564E1,1.5960461E3,1.4397445E1,1.0351104E0,5.8342586E0,1.2233123E0,1.5150252E1,1.5869183E3,9.127791E0,6.3047633E0,8.092681E0,1.5056151E3,8.1303215E1,6.681167E0,2.4466245E0,1.693817E0,4.610946E0,4.516845E0,3.575836E0,1.4316517E3,7.396334E1,6.267123E1,1.8631987E1,5.6460567E0,1.0351104E0,1.2233123E0,3.293533E0,2.5407255E0,1.0351104E0],"tree_param":{"num_deleted":"0","num_feature":"8","num_nodes":"35","size_leaf_vector":"1"}},{"base_weights":[2.4600683E-6,6.240552E-1,-3.308638E-1,2.6406473E-1,2.6159588E-1,5.5155766E-1,-2.4024196E-1,6.645451E-1,1.6994989E-2,1.7695396E-1,-6.2213993E-1,7.2396684E-1,1.5733503E-1,2.3197699E-1,-7.1164984E-1,4.7696307E-1,-2.9531193E-1,-1.0295126E-1,-8.266326E-1,1.1963087E-1,2.3152609E-1,-1.4994867E-1,1.2557137E-1,1.4577071E-1,-5.3753607E-2,-2.8798878E-1,-6.490272E-2,1.8247907E-1,-3.3656023E-2,-1.8489614E-1,2.8297659E-2,1.0117076E-1,-1.10715084E-1,-2.7334455E-1,-9.853501E-2],"categories":[],"categories_nodes":[],"categories_segments":[],"categories_sizes":[],"default_left":[0,0,0,0,0,0,0,0,0,0,0,0,0,0,0,0,0,0,0,0,0,0,0,0,0,0,0,0,0,0,0,0,0,0,0],"id":2,"left_children":[1,3,-1,-1,5,7,9,11,13,15,17,19,21,23,25,27,29,31,33,-1,-1,-1,-1,-1,-1,-1,-1,-1,-1,-1,-1,-1,-1,-1,-1],"loss_changes":[6.1303965E3,5.279265E2,0E0,0E0,3.430946E2,9.023047E1,1.3773758E2,3.705902E1,4.116278E1,5.8742065E1,4.7819397E1,1.6844727E1,2.2633274E1,2.1265167E1,7.156151E0,1.9663387E1,2.023211E1,1.5192534E1,1.3324158E1,0E0,0E0,0E0,0E0,0E0,0E0,0E0,0E0,0E0,0E0,0E0,0E0,0E0,0E0,0E0,0E0],"parents":[2147483647,0,0,1,1,4,4,5,5,6,6,7,7,8,8,9,9,10,10,11,11,12,12,13,13,14,14,15,15,16,16,17,17,18,18],"right_children":[2,4,-1,-1,6,8,10,12,14,16,18,20,22,24,26,28,30,32,34,-1,-1,-1,-1,-1,-1,-1,-1,-1,-1,-1,-1,-1,-1,-1,-1],"split_conditions":[4E0,3E0,-3.308638E-1,2.6406473E-1,3.716E1,2E0,4.26E1,5.71E1,5.45E1,8.29E1,7.55E1,9.51E1,9.61E1,8.24E1,9.77E1,2E0,9.71E1,1E0,9.9E1,1.1963087E-1,2.3152609E-1,-1.4994867E-1,1.2557137E-1,1.4577071E-1,-5.3753607E-2,-2.8798878E-1,-6.490272E-2,1.8247907E-1,-3.3656023E-2,-1.8489614E-1,2.8297659E-2,1.0117076E-1,-1.10715084E-1,-2.7334455E-1,-9.853501E-2],"split_indices":[5,5,0,0,4,7,0,0,0,1,1,3,3,1,3,7,3,7,3,0,0,0,0,0,0,0,0,0,0,0,0,0,0,0,0],"split_type":[0,0,0,0,0,0,0,0,0,0,0,0,0,0,0,0,0,0,0,0,0,0,0,0,0,0,0,0,0,0,0,0,0,0,0],"sum_hessian":[8.905141E3,5.6874165E3,3.217724E3,3.331512E3,2.3559043E3,1.4930952E3,8.6280914E2,1.2323724E3,2.6072272E2,4.1260483E2,4.502043E2,1.1027532E3,1.2961926E2,2.0184985E2,5.887287E1,2.5231232E2,1.6029253E2,1.2764035E2,3.2256396E2,1.4248225E2,9.60271E2,3.6610023E1,9.300925E1,1.2467197E2,7.717789E1,3.8588943E1,2.0283932E1,2.0630241E2,4.600989E1,8.7567215E1,7.272531E1,4.798881E1,7.9651535E1,2.750699E2,4.7494083E1],"tree_param":{"num_deleted":"0","num_feature":"8","num_nodes":"35","size_leaf_vector":"1"}},{"base_weights":[-4.278985E-8,-6.306961E-1,3.7704465E-1,-5.460307E-1,-6.323502E-1,6.934195E-1,-1.9265728E-1,-5.6191194E-1,3.571548E-2,-1.9030567E-1,-5.5054766E-1,1.7768925E-1,1.3330761E0,-2.5662938E-2,-5.772183E-1,-5.7608855E-1,-5.5415828E-2,-2.0159712E-1,8.333501E-1,1.610194E0,4.807667E-1,-1.9393852E-1,-4.2451444E-1,-1.0358603E-1,-6.041219E-1,-1.0563869E-1,1.5574318E-1,-3.489478E-1,4.9313956E-1,2.819145E-1,1.3364259E0,1.7428703E0,7.1871024E-1,1.8933939E0,7.3122986E-2,-1.823548E-1,-4.171043E-2,-1.3819642E-1,1.2059848E-1,-1.0945881E-1,-1.9006002E-1,1.7706965E-1,-1.0563869E-1,-1.2801757E-1,9.311425E-2,6.3193224E-2,4.30737E-1,-3.1356268E-2,2.6582113E-1,1.960495E-1,4.808678E-1,3.3633265E-1,5.4701287E-1,5.6060666E-1,9.684827E-2,5.713705E-1,1.7706965E-1,2.5944138E-1,-8.6562105E-2],"categories":[],"categories_nodes":[],"categories_segments":[],"categories_sizes":[],"default_left":[0,0,0,0,0,0,0,0,0,0,0,0,0,0,0,0,0,0,0,0,0,0,0,0,0,0,0,0,0,0,0,0,0,0,0,0,0,0,0,0,0,0,0,0,0,0,0,0,0,0,0,0,0,0,0,0,0,0,0],"id":3,"left_children":[1,3,5,7,9,11,-1,13,-1,-1,15,17,19,-1,21,23,25,27,29,31,33,-1,35,37,39,-1,41,43,45,47,49,51,53,55,57,-1,-1,-1,-1,-1,-1,-1,-1,-1,-1,-1,-1,-1,-1,-1,-1,-1,-1,-1,-1,-1,-1,-1,-1],"loss_changes":[1.6018184E3,7.751465E-3,1.3598479E3,6.5437317E-1,5.4504395E-2,1.0612162E3,0E0,3.4799004E-1,0E0,0E0,8.086529E-1,4.434483E2,3.384148E2,0E0,2.8203392E-1,7.73262E-1,3.284493E-1,1.1585649E2,1.8089859E2,1.2687891E2,2.0358832E2,0E0,9.272604E-1,1.0410773E0,1.8656921E-1,0E0,9.2381954E-1,4.7972725E1,5.2465336E1,7.316958E1,6.1086853E1,4.5121094E1,6.4061066E1,2.89917E-2,7.9158905E1,0E0,0E0,0E0,0E0,0E0,0E0,0E0,0E0,0E0,0E0,0E0,0E0,0E0,0E0,0E0,0E0,0E0,0E0,0E0,0E0,0E0,0E0,0E0,0E0],"parents":[2147483647,0,0,1,1,2,2,3,3,4,4,5,5,7,7,10,10,11,11,12,12,14,14,15,15,16,16,17,17,18,18,19,19,20,20,22,22,23,23,24,24,26,26,27,27,28,28,29,29,30,30,31,31,32,32,33,33,34,34],"right_children":[2,4,6,8,10,12,-1,14,-1,-1,16,18,20,-1,22,24,26,28,30,32,34,-1,36,38,40,-1,42,44,46,48,50,52,54,56,58,-1,-1,-1,-1,-1,-1,-1,-1,-1,-1,-1,-1,-1,-1,-1,-1,-1,-1,-1,-1,-1,-1,-1,-1],"split_conditions":[3E0,5.06E1,6E0,1.574E2,6.53E1,4E0,-1.9265728E-1,1.05E1,3.571548E-2,-1.9030567E-1,3.752E1,3.716E1,9.78E1,-2.5662938E-2,4.89E1,5.64E1,7.04E1,2E0,4.26E1,3.826E1,5E0,-1.9393852E-1,3.674E1,1E0,6.64E1,-1.0563869E-1,7.22E1,5.71E1,5.45E1,8.29E1,7.55E1,9.27E1,5E0,1.652E2,3.767E1,-1.823548E-1,-4.171043E-2,-1.3819642E-1,1.2059848E-1,-1.0945881E-1,-1.9006002E-1,1.7706965E-1,-1.0563869E-1,-1.2801757E-1,9.311425E-2,6.3193224E-2,4.30737E-1,-3.1356268E-2,2.6582113E-1,1.960495E-1,4.808678E-1,3.3633265E-1,5.4701287E-1,5.6060666E-1,9.684827E-2,5.713705E-1,1.7706965E-1,2.5944138E-1,-8.6562105E-2],"split_indices":[5,1,5,2,0,5,0,0,0,0,4,4,1,0,1,1,0,7,0,4,5,0,4,6,0,0,0,0,0,1,1,3,5,2,4,0,0,0,0,0,0,0,0,0,0,0,0,0,0,0,0,0,0,0,0,0,0,0,0],"split_type":[0,0,0,0,0,0,0,0,0,0,0,0,0,0,0,0,0,0,0,0,0,0,0,0,0,0,0,0,0,0,0,0,0,0,0,0,0,0,0,0,0,0,0,0,0,0,0,0,0,0,0,0,0,0,0,0,0,0,0],"sum_hessian":[6.733972E3,2.519254E3,4.2147183E3,5.4619995E1,2.4646338E3,3.216594E3,9.981243E2,5.349767E1,1.1223288E0,2.3991646E3,6.546918E1,1.7815098E3,1.4350844E3,1.8705478E0,5.162712E1,6.210219E1,3.366986E0,1.1290626E3,6.524471E2,1.082299E3,3.527853E2,3.329575E1,1.833137E1,3.7410955E0,5.836109E1,1.1223288E0,2.2446575E0,9.319069E2,1.9715575E2,3.120074E2,3.404397E2,9.4125964E2,1.410393E2,7.8188896E1,2.7459644E2,1.0475068E1,7.856301E0,2.2446575E0,1.4964383E0,7.856301E0,5.050479E1,1.1223288E0,1.1223288E0,8.338902E2,9.801671E1,1.526367E2,4.451904E1,1.9079588E2,1.212115E2,9.652027E1,2.4391943E2,1.09614105E2,8.3164557E2,3.5166298E1,1.0587301E2,7.7066574E1,1.1223288E0,8.567109E1,1.8892532E2],"tree_param":{"num_deleted":"0","num_feature":"8","num_nodes":"59","size_leaf_vector":"1"}},{"base_weights":[-1.9070892E-2,-5.539262E-1,8.229321E-1,-5.542735E-1,-1.228641E-2,8.9233965E-1,-4.0768197E-1,-5.598743E-1,-5.1283294E-1,5.4611486E-1,1.1837461E0,9.869839E-2,-4.3448526E-1,-1.6808021E-1,-1.5252373E-1,-2.6810765E-2,-5.207198E-1,-6.2132582E-2,9.1106004E-1,-1.6114827E-1,1.2172241E0,-1.9338197E-1,2.0018144E-1,-1.5374134E-1,-3.1544676E-1,5.3437993E-2,-1.0669709E-1,-1.2356026E-1,3.2650977E-1,-1.5769902E-1,-2.3634449E-1,4.8231193E-1,-3.3093914E-1,1.1162536E0,1.5340188E-1,3.117833E-1,-3.8051933E-1,1.2362742E0,4.4574976E-1,6.403234E-2,-1.14693776E-1,-5.413215E-2,-3.8758257E-1,-2.6912284E-3,1.8088204E-1,1.8064003E-1,-1.4567637E-1,-4.787075E-2,2.6762703E-1,-1.1867712E-1,2.1509722E-1,6.661947E-2,3.7421453E-1,-1.7477825E-2,3.5124323E-1,2.7697884E-2,-1.3980624E-1,3.7914306E-1,2.7182257E-1,-9.532653E-2,2.7804396E-1,2.1359295E-1,-7.050066E-2,-1.407256E-1,-4.7389213E-2],"categories":[],"categories_nodes":[],"categories_segments":[],"categories_sizes":[],"default_left":[0,0,0,0,0,0,0,0,0,0,0,0,0,0,0,0,0,0,0,0,0,0,0,0,0,0,0,0,0,0,0,0,0,0,0,0,0,0,0,0,0,0,0,0,0,0,0,0,0,0,0,0,0,0,0,0,0,0,0,0,0,0,0,0,0],"id":4,"left_children":[1,3,5,7,-1,9,11,13,15,17,19,21,23,-1,25,27,29,31,33,35,37,39,-1,-1,41,-1,-1,-1,43,-1,45,47,49,51,53,-1,55,57,59,-1,-1,61,63,-1,-1,-1,-1,-1,-1,-1,-1,-1,-1,-1,-1,-1,-1,-1,-1,-1,-1,-1,-1,-1,-1],"loss_changes":[2.0054803E3,4.623413E-1,1.4812012E2,3.4454346E-1,0E0,1.64599E2,1.3057404E0,2.9656982E-1,1.2736511E0,1.6662233E2,4.0199097E1,1.0411303E0,6.603985E-1,0E0,3.1014118E-1,1.0076634E0,3.4038544E-1,4.1477917E1,7.275021E1,6.310672E0,1.219104E1,4.200715E-1,0E0,0E0,6.887567E-1,0E0,0E0,0E0,3.6753047E-1,0E0,1.8522567E0,2.4794641E1,1.3129028E1,4.2981262E1,2.1843678E1,0E0,8.4043574E-1,6.5428467E0,8.542824E0,0E0,0E0,1.4570277E0,4.7506142E-1,0E0,0E0,0E0,0E0,0E0,0E0,0E0,0E0,0E0,0E0,0E0,0E0,0E0,0E0,0E0,0E0,0E0,0E0,0E0,0E0,0E0,0E0],"parents":[2147483647,0,0,1,1,2,2,3,3,5,5,6,6,7,7,8,8,9,9,10,10,11,11,12,12,14,14,15,15,16,16,17,17,18,18,19,19,20,20,21,21,24,24,28,28,30,30,31,31,32,32,33,33,34,34,36,36,37,37,38,38,41,41,42,42],"right_children":[2,4,6,8,-1,10,12,14,16,18,20,22,24,-1,26,28,30,32,34,36,38,40,-1,-1,42,-1,-1,-1,44,-1,46,48,50,52,54,-1,56,58,60,-1,-1,62,64,-1,-1,-1,-1,-1,-1,-1,-1,-1,-1,-1,-1,-1,-1,-1,-1,-1,-1,-1,-1,-1,-1],"split_conditions":[5E0,1.727E2,8E0,4E0,-1.228641E-2,6E0,1.346E2,3.886E1,1.63E1,3.763E1,8.73E1,1.332E2,1.639E2,-1.6808021E-1,3.89E1,1.33E2,1.612E2,9.41E1,9.61E1,7E0,3.95E1,3.865E1,2.0018144E-1,-1.5374134E-1,3.865E1,5.3437993E-2,-1.0669709E-1,-1.2356026E-1,1.21E1,-1.5769902E-1,6.89E1,8.69E1,1.099E2,8.21E1,1.503E2,3.117833E-1,2E0,1.174E2,9.09E1,6.403234E-2,-1.14693776E-1,5.39E1,3.96E1,-2.6912284E-3,1.8088204E-1,1.8064003E-1,-1.4567637E-1,-4.787075E-2,2.6762703E-1,-1.1867712E-1,2.1509722E-1,6.661947E-2,3.7421453E-1,-1.7477825E-2,3.5124323E-1,2.7697884E-2,-1.3980624E-1,3.7914306E-1,2.7182257E-1,-9.532653E-2,2.7804396E-1,2.1359295E-1,-7.050066E-2,-1.407256E-1,-4.7389213E-2],"split_indices":[5,2,5,5,0,5,2,4,0,4,3,2,2,0,4,2,2,3,3,5,4,4,0,0,4,0,0,0,0,0,1,1,1,1,2,0,7,1,3,0,0,0,4,0,0,0,0,0,0,0,0,0,0,0,0,0,0,0,0,0,0,0,0,0,0],"split_type":[0,0,0,0,0,0,0,0,0,0,0,0,0,0,0,0,0,0,0,0,0,0,0,0,0,0,0,0,0,0,0,0,0,0,0,0,0,0,0,0,0,0,0,0,0,0,0,0,0,0,0,0,0,0,0,0,0,0,0,0,0,0,0,0,0],"sum_hessian":[4.4511494E3,2.722262E3,1.7288873E3,2.72034E3,1.9219979E0,1.636843E3,9.204424E1,2.3854302E3,3.3490973E2,7.4937384E2,8.8746924E2,4.4922466E0,8.7551994E1,2.3827559E3,2.6743135E0,5.418188E0,3.2949155E2,2.8132477E2,4.6804904E2,2.1462349E1,8.660069E2,3.4036481E0,1.0885985E0,5.0900425E1,3.665157E1,1.0645672E0,1.6097463E0,2.5133631E0,2.904825E0,3.2302753E2,6.4640155E0,9.272466E1,1.886001E2,3.6793057E2,1.0011848E2,2.7386394E0,1.8723711E1,8.4454987E2,2.1456991E1,1.0382526E0,2.3653955E0,8.307557E0,2.8344011E1,1.7493418E0,1.1554832E0,1.1567515E0,5.307264E0,3.6368004E1,5.635666E1,1.7822702E2,1.0373075E1,4.739921E1,3.2053137E2,8.36572E1,1.6461273E1,2.8549986E0,1.5868712E1,7.769327E2,6.761723E1,8.424996E0,1.3031996E1,1.0258751E0,7.281682E0,2.0149195E1,8.194816E0],"tree_param":{"num_deleted":"0","num_feature":"8","num_nodes":"65","size_leaf_vector":"1"}},{"base_weights":[-1.4676955E-1,-5.0817853E-1,7.5414383E-1,-5.1648504E-1,-3.662582E-1,8.744603E-1,9.484393E-2,7.030666E-2,-5.1732004E-1,-2.96692E-1,-1.505733E-1,9.8916E-3,8.991685E-1,-3.0190766E-1,6.478287E-1,-5.1813996E-1,-2.0480584E-1,-3.475338E-1,5.1322395E-1,-3.452023E-1,5.5692726E-1,2.4447465E-1,9.179667E-1,-3.787212E-1,5.203403E-1,3.309257E-1,1.3555019E0,-1.5568568E-1,-2.8455344E-1,-1.1557528E-1,6.89771E-2,-3.9935306E-1,1.7864378E-1,-8.618152E-2,3.2836282E-1,-1.3665935E-1,7.108033E-2,2.036133E-1,4.1419916E-2,5.680013E-1,-1.24786414E-1,6.946114E-1,9.5178914E-1,-4.208181E-1,1.2588967E-1,5.1363174E-2,3.0809012E-1,6.6559496E-3,2.4169114E-1,2.0223305E0,2.3009408E-1,5.3894248E-2,-1.2755753E-1,6.476561E-2,-1.258213E-1,-1.1554945E-1,3.1911787E-1,1.951325E-2,2.4970977E-1,1.0666083E-1,2.4494593E-1,3.574508E-1,2.5863987E-1,-1.3842262E-1,7.8550264E-2,-8.5145555E-2,1.0928349E-1,-5.84263E-2,2.615631E-1,2.2767612E-1,7.783988E-1],"categories":[],"categories_nodes":[],"categories_segments":[],"categories_sizes":[],"default_left":[0,0,0,0,0,0,0,0,0,0,0,0,0,0,0,0,0,0,0,0,0,0,0,0,0,0,0,0,0,0,0,0,0,0,0,0,0,0,0,0,0,0,0,0,0,0,0,0,0,0,0,0,0,0,0,0,0,0,0,0,0,0,0,0,0,0,0,0,0,0,0],"id":5,"left_children":[1,3,5,7,9,11,13,-1,15,17,-1,19,21,23,25,27,29,31,33,35,37,39,41,43,45,47,49,-1,51,-1,-1,53,55,-1,-1,-1,-1,-1,-1,57,-1,59,61,63,-1,65,-1,67,-1,69,-1,-1,-1,-1,-1,-1,-1,-1,-1,-1,-1,-1,-1,-1,-1,-1,-1,-1,-1,-1,-1],"loss_changes":[5.7448584E2,1.2950134E0,3.999362E1,8.6538696E-1,5.4047203E-1,9.115448E0,1.7548058E1,0E0,1.9778442E-1,2.2674823E0,0E0,2.6939433E0,4.886139E0,3.1487217E0,7.0324793E0,7.662964E-2,4.6174043E-1,1.3892212E0,1.8968065E0,6.4915586E-1,1.8439984E-1,3.0039592E0,2.385559E0,1.6324677E0,9.960035E-1,3.7450216E0,2.371294E0,0E0,4.88384E-1,0E0,0E0,6.371627E-1,2.9168808E0,0E0,0E0,0E0,0E0,0E0,0E0,1.1580925E0,0E0,2.0544853E0,6.4424133E0,1.2748666E0,0E0,4.542052E-1,0E0,2.868077E0,0E0,9.7722626E-1,0E0,0E0,0E0,0E0,0E0,0E0,0E0,0E0,0E0,0E0,0E0,0E0,0E0,0E0,0E0,0E0,0E0,0E0,0E0,0E0,0E0],"parents":[2147483647,0,0,1,1,2,2,3,3,4,4,5,5,6,6,8,8,9,9,11,11,12,12,13,13,14,14,15,15,16,16,17,17,18,18,19,19,20,20,21,21,22,22,23,23,24,24,25,25,26,26,28,28,31,31,32,32,39,39,41,41,42,42,43,43,45,45,47,47,49,49],"right_children":[2,4,6,8,10,12,14,-1,16,18,-1,20,22,24,26,28,30,32,34,36,38,40,42,44,46,48,50,-1,52,-1,-1,54,56,-1,-1,-1,-1,-1,-1,58,-1,60,62,64,-1,66,-1,68,-1,70,-1,-1,-1,-1,-1,-1,-1,-1,-1,-1,-1,-1,-1,-1,-1,-1,-1,-1,-1,-1,-1],"split_conditions":[7E0,6E0,9.19E1,8.71E1,7.08E1,9.32E1,1.079E2,7.030666E-2,3.924E1,6.96E1,-1.505733E-1,8E0,3.792E1,3.931E1,5E0,1.709E2,1.49E2,1.63E2,9.39E1,9.16E1,9.14E1,9E1,1.44E2,8.92E1,1.545E2,8E0,8E0,-1.5568568E-1,4.49E1,-1.1557528E-1,6.89771E-2,8.79E1,9.48E1,-8.618152E-2,3.2836282E-1,-1.3665935E-1,7.108033E-2,2.036133E-1,4.1419916E-2,1.59E2,-1.24786414E-1,1.091E2,8E0,8E0,1.2588967E-1,1.022E2,3.0809012E-1,1.244E2,2.4169114E-1,1.539E2,2.3009408E-1,5.3894248E-2,-1.2755753E-1,6.476561E-2,-1.258213E-1,-1.1554945E-1,3.1911787E-1,1.951325E-2,2.4970977E-1,1.0666083E-1,2.4494593E-1,3.574508E-1,2.5863987E-1,-1.3842262E-1,7.8550264E-2,-8.5145555E-2,1.0928349E-1,-5.84263E-2,2.615631E-1,2.2767612E-1,7.783988E-1],"split_indices":[5,5,3,3,0,1,1,0,4,0,0,5,4,4,7,2,2,2,3,3,1,3,2,0,2,5,5,0,0,0,0,3,3,0,0,0,0,0,0,2,0,1,5,5,0,1,0,1,0,2,0,0,0,0,0,0,0,0,0,0,0,0,0,0,0,0,0,0,0,0,0],"split_type":[0,0,0,0,0,0,0,0,0,0,0,0,0,0,0,0,0,0,0,0,0,0,0,0,0,0,0,0,0,0,0,0,0,0,0,0,0,0,0,0,0,0,0,0,0,0,0,0,0,0,0,0,0,0,0,0,0,0,0,0,0,0,0,0,0,0,0,0,0,0,0],"sum_hessian":[1.7622242E3,1.2580021E3,5.0422217E2,1.1859498E3,7.205233E1,4.2613074E2,7.8091446E1,1.0067127E0,1.1849431E3,4.9734398E1,2.2317928E1,1.187878E1,4.1425195E2,4.5733173E1,3.2358273E1,1.181186E3,3.757004E0,4.733395E1,2.4004478E0,7.426816E0,4.451965E0,1.1953349E1,4.0229858E2,4.2319168E1,3.414006E0,2.3363495E1,8.994778E0,1.1758752E3,5.3108363E0,2.7354171E0,1.0215869E0,4.3309734E1,4.0242186E0,1.2226478E0,1.1778E0,6.426352E0,1.0004637E0,2.9685009E0,1.4834638E0,8.117001E0,3.8363488E0,5.5740215E1,3.4655838E2,4.064867E1,1.6704967E0,2.3448212E0,1.0691848E0,1.4483802E1,8.879693E0,3.0746891E0,5.9200883E0,1.1703904E0,4.140446E0,1.0587016E0,4.225103E1,2.8033044E0,1.220914E0,3.2258391E0,4.8911614E0,1.57734E1,3.9966816E1,9.098978E1,2.555686E2,3.867325E1,1.975424E0,1.1770257E0,1.1677955E0,1.2377432E1,2.10637E0,1.6837851E0,1.390904E0],"tree_param":{"num_deleted":"0","num_feature":"8","num_nodes":"71","size_leaf_vector":"1"}},{"base_weights":[3.6890283E-2,5.1140225E-1,-7.9700243E-1,2.1948317E-1,2.162976E-1,-2.425954E-1,-1.9653535E-1,5.102294E-1,-1.0024456E-1,5.4969347E-1,-3.1483498E-1,4.00129E-1,-2.9799113E-1,5.807381E-1,-1.41138E-1,4.6391973E-1,-5.275211E-1,5.2377874E-1,-1.3834523E-1,-4.9033764E-1,1.4473733E-1,1.9046183E-1,8.361849E-2,-2.4215436E-1,4.3805588E-2,2.2963218E-1,-7.2901405E-2,-5.052688E-2,-2.4817197E-1,1.791664E-1,7.6216185E-3,-1.6668145E-1,6.0943022E-2,-1.5987555E-2,-1.846663E-1,1.09234646E-1,-1.4570184E-1],"categories":[],"categories_nodes":[],"categories_segments":[],"categories_sizes":[],"default_left":[0,0,0,0,0,0,0,0,0,0,0,0,0,0,0,0,0,0,0,0,0,0,0,0,0,0,0,0,0,0,0,0,0,0,0,0,0],"id":6,"left_children":[1,3,5,-1,7,-1,-1,9,11,13,15,17,19,21,23,25,27,29,31,33,35,-1,-1,-1,-1,-1,-1,-1,-1,-1,-1,-1,-1,-1,-1,-1,-1],"loss_changes":[3.2911096E3,3.4431763E2,4.4556885E0,0E0,2.1094418E2,0E0,0E0,3.8446533E1,1.08187744E2,2.4148712E1,9.237364E0,2.0699253E1,6.678231E1,1.738379E1,9.501772E0,2.7820368E0,4.50099E0,9.213982E0,8.469053E0,2.9866486E1,3.309721E1,0E0,0E0,0E0,0E0,0E0,0E0,0E0,0E0,0E0,0E0,0E0,0E0,0E0,0E0,0E0,0E0],"parents":[2147483647,0,0,1,1,2,2,4,4,7,7,8,8,9,9,10,10,11,11,12,12,13,13,14,14,15,15,16,16,17,17,18,18,19,19,20,20],"right_children":[2,4,6,-1,8,-1,-1,10,12,14,16,18,20,22,24,26,28,30,32,34,36,-1,-1,-1,-1,-1,-1,-1,-1,-1,-1,-1,-1,-1,-1,-1,-1],"split_conditions":[4E0,3E0,8E0,2.1948317E-1,3.697E1,-2.425954E-1,-1.9653535E-1,3E0,3.29E1,6.56E1,3.2E1,2E0,9.82E1,8.77E1,9.57E1,1.302E2,8.24E1,2E0,9.65E1,7.27E1,2E0,1.9046183E-1,8.361849E-2,-2.4215436E-1,4.3805588E-2,2.2963218E-1,-7.2901405E-2,-5.052688E-2,-2.4817197E-1,1.791664E-1,7.6216185E-3,-1.6668145E-1,6.0943022E-2,-1.5987555E-2,-1.846663E-1,1.09234646E-1,-1.4570184E-1],"split_indices":[5,5,5,0,4,0,0,7,0,0,0,7,3,1,3,2,1,6,3,1,7,0,0,0,0,0,0,0,0,0,0,0,0,0,0,0,0],"split_type":[0,0,0,0,0,0,0,0,0,0,0,0,0,0,0,0,0,0,0,0,0,0,0,0,0,0,0,0,0,0,0,0,0,0,0,0,0],"sum_hessian":[8.315319E3,5.2998945E3,3.0154248E3,3.0342476E3,2.2656472E3,2.782296E3,2.33129E2,1.174463E3,1.0911841E3,1.1211697E3,5.3293423E1,3.0879434E2,7.8238983E2,1.0731057E3,4.8063953E1,1.1179222E1,4.21142E1,2.5115007E2,5.7644257E1,5.4535077E2,2.3703903E2,9.09057E2,1.6404869E2,1.393397E1,3.4129982E1,7.778656E0,3.400566E0,1.9869797E1,2.2244404E1,2.1872012E2,3.2429943E1,2.5661665E1,3.1982594E1,1.21767914E2,4.2358286E2,1.761593E2,6.087974E1],"tree_param":{"num_deleted":"0","num_feature":"8","num_nodes":"37","size_leaf_vector":"1"}},{"base_weights":[5.774944E-3,-5.7344264E-1,2.8195125E-1,-4.7819626E-1,-5.753554E-1,4.707615E-1,-1.7475598E-1,-5.122755E-1,-5.174009E-2,-5.776758E-1,-4.8288125E-1,1.4699352E-1,7.97707E-1,-1.7835501E-1,-3.3677658E-1,1.5412793E-1,-1.3055754E-1,-1.7355196E-1,-3.7376902E-1,-5.117544E-1,8.650098E-3,-2.393277E-1,5.0633913E-1,3.1072497E-1,9.6242636E-1,-1.6455455E-1,-5.756427E-2,-1.6553533E-1,1.6803962E-1,-3.282104E-2,-5.4386306E-1,6.807065E-2,-9.723769E-2,-3.5701847E-1,2.5900677E-1,-2.2977799E-1,6.7403114E-1,3.4484705E-1,1.1410373E-2,1.0246735E0,4.8345774E-1,-1.3873997E-1,6.951536E-2,-1.222421E-1,1.2633358E-1,-8.615771E-2,-1.7340752E-1,3.2759137E-3,-1.3481918E-1,9.63778E-4,2.5310993E-1,-1.0909746E-1,1.2069052E-1,2.812669E-1,7.596005E-2,1.7134511E-1,-9.338721E-2,3.2963035E-1,2.545923E-1,3.2196462E-1,4.227992E-2],"categories":[],"categories_nodes":[],"categories_segments":[],"categories_sizes":[],"default_left":[0,0,0,0,0,0,0,0,0,0,0,0,0,0,0,0,0,0,0,0,0,0,0,0,0,0,0,0,0,0,0,0,0,0,0,0,0,0,0,0,0,0,0,0,0,0,0,0,0,0,0,0,0,0,0,0,0,0,0,0,0],"id":7,"left_children":[1,3,5,7,9,11,-1,13,15,17,19,21,23,-1,25,-1,-1,-1,27,29,31,33,35,37,39,-1,41,-1,-1,43,45,-1,-1,47,49,51,53,-1,55,57,59,-1,-1,-1,-1,-1,-1,-1,-1,-1,-1,-1,-1,-1,-1,-1,-1,-1,-1,-1,-1],"loss_changes":[1.02236487E3,1.0083008E-1,7.066373E2,6.4995193E-1,1.539917E-1,3.7592346E2,0E0,4.2024517E-1,1.211658E0,1.1639404E-1,7.9193306E-1,2.4807469E2,1.414668E2,0E0,9.157468E-1,0E0,0E0,0E0,2.1032515E0,7.88373E-1,3.6856675E-1,5.0614727E1,1.14422485E2,1.1250226E2,3.8864014E1,0E0,1.0474886E0,0E0,0E0,9.127824E-1,2.642517E-1,0E0,0E0,2.370504E1,2.4697948E1,1.4743491E1,8.3401886E1,0E0,6.0022247E1,1.4294189E1,3.0902756E1,0E0,0E0,0E0,0E0,0E0,0E0,0E0,0E0,0E0,0E0,0E0,0E0,0E0,0E0,0E0,0E0,0E0,0E0,0E0,0E0],"parents":[2147483647,0,0,1,1,2,2,3,3,4,4,5,5,7,7,8,8,9,9,10,10,11,11,12,12,14,14,18,18,19,19,20,20,21,21,22,22,23,23,24,24,26,26,29,29,30,30,33,33,34,34,35,35,36,36,38,38,39,39,40,40],"right_children":[2,4,6,8,10,12,-1,14,16,18,20,22,24,-1,26,-1,-1,-1,28,30,32,34,36,38,40,-1,42,-1,-1,44,46,-1,-1,48,50,52,54,-1,56,58,60,-1,-1,-1,-1,-1,-1,-1,-1,-1,-1,-1,-1,-1,-1,-1,-1,-1,-1,-1,-1],"split_conditions":[3E0,5.06E1,6E0,1.436E2,6.53E1,4E0,-1.7475598E-1,4.89E1,3.23E1,1.057E2,3.752E1,3.697E1,9.37E1,-1.7835501E-1,3.674E1,1.5412793E-1,-1.3055754E-1,-1.7355196E-1,1.352E2,5.64E1,1.242E2,2E0,2.9E1,5E0,1.499E2,-1.6455455E-1,2.98E1,-1.6553533E-1,1.6803962E-1,1E0,6.64E1,6.807065E-2,-9.723769E-2,9.57E1,1.302E2,2E0,9.76E1,3.4484705E-1,3.764E1,5.96E1,5E0,-1.3873997E-1,6.951536E-2,-1.222421E-1,1.2633358E-1,-8.615771E-2,-1.7340752E-1,3.2759137E-3,-1.3481918E-1,9.63778E-4,2.5310993E-1,-1.0909746E-1,1.2069052E-1,2.812669E-1,7.596005E-2,1.7134511E-1,-9.338721E-2,3.2963035E-1,2.545923E-1,3.2196462E-1,4.227992E-2],"split_indices":[5,1,5,2,0,5,0,1,0,1,4,4,3,0,4,0,0,0,2,1,2,7,0,5,2,0,0,0,0,6,0,0,0,3,2,7,3,0,4,0,5,0,0,0,0,0,0,0,0,0,0,0,0,0,0,0,0,0,0,0,0],"split_type":[0,0,0,0,0,0,0,0,0,0,0,0,0,0,0,0,0,0,0,0,0,0,0,0,0,0,0,0,0,0,0,0,0,0,0,0,0,0,0,0,0,0,0,0,0,0,0,0,0,0,0,0,0,0,0,0,0,0,0,0,0],"sum_hessian":[6.3891206E3,2.0624727E3,4.326648E3,4.554526E1,2.0169274E3,3.551431E3,7.752171E2,4.19886E1,3.5566576E0,1.9624381E3,5.448931E1,1.7851149E3,1.766316E3,2.6964903E1,1.50237E1,1.2998538E0,2.2568038E0,1.9526459E3,9.792137E0,5.1427273E1,3.0620415E0,8.604288E2,9.246861E2,4.4717078E2,1.3191453E3,7.9957066E0,7.027993E0,8.568093E0,1.2240436E0,3.3582215E0,4.806905E1,2.041361E0,1.0206805E0,6.962745E2,1.6415436E2,1.7149683E2,7.531893E2,1.16858734E2,3.3031204E2,1.1664175E3,1.5272775E2,2.6792424E0,4.348751E0,1.8958414E0,1.4623803E0,6.7512574E0,4.131779E1,1.3990887E2,5.5636554E2,1.14895035E2,4.9259315E1,1.4187177E2,2.9625061E1,4.6240347E2,2.907858E2,1.2051071E2,2.0980133E2,8.1720374E2,3.492137E2,5.5329094E1,9.739866E1],"tree_param":{"num_deleted":"0","num_feature":"8","num_nodes":"61","size_leaf_vector":"1"}},{"base_weights":[-2.1994103E-2,-5.3508145E-1,6.015387E-1,-5.3550243E-1,-3.1579165E-3,6.444923E-1,-3.7218904E-1,-5.424449E-1,-4.8636052E-1,7.757105E-2,7.312561E-1,1.2540434E-1,-4.0308845E-1,-1.6287574E-1,-1.270204E-1,1.4472592E-2,-4.9547908E-1,-2.1090594E-1,8.8518625E-1,1.1296405E-1,7.7291757E-1,-1.7675966E-1,2.0760281E-1,-4.9626294E-1,-2.6829264E-1,-1.00894794E-1,5.0615303E-2,-2.3954548E-1,1.5667161E-1,-5.0118864E-1,-1.9164254E-1,-2.9824233E-1,6.668827E-1,2.7421024E-1,3.7796223E-1,-2.5031647E-1,9.0646964E-1,2.2477904E-1,8.0342007E-1,6.813941E-2,-1.1163986E-1,-1.5542275E-1,-3.034982E-1,9.1542467E-4,-3.4970853E-1,-1.2638402E-1,6.3304074E-2,-1.20480575E-1,-1.5329932E-1,1.663553E-1,-1.379661E-1,-1.05853856E-1,3.1591424E-1,4.2041042E-1,6.558903E-3,-6.688479E-2,2.0970035E-1,1.5774934E-1,-1.1571441E-1,2.8124434E-1,9.292719E-2,-4.8333984E-2,2.6091966E-1,2.4566577E-1,-2.6041308E-2,-1.30615E-1,4.8701975E-2,1.9140571E-1,-5.610639E-2,-2.1747318E-3,-1.23668864E-1],"categories":[],"categories_nodes":[],"categories_segments":[],"categories_sizes":[],"default_left":[0,0,0,0,0,0,0,0,0,0,0,0,0,0,0,0,0,0,0,0,0,0,0,0,0,0,0,0,0,0,0,0,0,0,0,0,0,0,0,0,0,0,0,0,0,0,0,0,0,0,0,0,0,0,0,0,0,0,0,0,0,0,0,0,0,0,0,0,0,0,0],"id":8,"left_children":[1,3,5,7,-1,9,11,13,15,17,19,21,23,-1,25,27,29,31,33,35,37,39,-1,41,43,-1,-1,45,-1,47,49,51,53,-1,55,57,59,61,63,-1,-1,-1,65,67,69,-1,-1,-1,-1,-1,-1,-1,-1,-1,-1,-1,-1,-1,-1,-1,-1,-1,-1,-1,-1,-1,-1,-1,-1,-1,-1],"loss_changes":[1.2847603E3,4.8083496E-1,7.606073E1,4.8712158E-1,0E0,8.536273E1,1.2378778E0,3.0932617E-1,1.2957077E0,5.4148163E1,3.8704773E1,1.0259032E0,7.8301334E-1,0E0,2.730515E-1,9.011571E-1,3.8471222E-1,1.3343908E1,5.493126E-1,2.7969448E1,2.340625E1,4.1899064E-1,0E0,1.9173622E-2,7.014828E-1,0E0,0E0,4.7341722E-1,0E0,5.9906006E-2,1.6022146E0,1.192933E1,7.4667153E0,0E0,1.1196084E0,7.222755E0,2.728939E-1,1.899389E1,1.8464783E1,0E0,0E0,0E0,4.8103654E-1,1.1281738E0,5.229676E-1,0E0,0E0,0E0,0E0,0E0,0E0,0E0,0E0,0E0,0E0,0E0,0E0,0E0,0E0,0E0,0E0,0E0,0E0,0E0,0E0,0E0,0E0,0E0,0E0,0E0,0E0],"parents":[2147483647,0,0,1,1,2,2,3,3,5,5,6,6,7,7,8,8,9,9,10,10,11,11,12,12,14,14,15,15,16,16,17,17,18,18,19,19,20,20,21,21,23,23,24,24,27,27,29,29,30,30,31,31,32,32,34,34,35,35,36,36,37,37,38,38,42,42,43,43,44,44],"right_children":[2,4,6,8,-1,10,12,14,16,18,20,22,24,-1,26,28,30,32,34,36,38,40,-1,42,44,-1,-1,46,-1,48,50,52,54,-1,56,58,60,62,64,-1,-1,-1,66,68,70,-1,-1,-1,-1,-1,-1,-1,-1,-1,-1,-1,-1,-1,-1,-1,-1,-1,-1,-1,-1,-1,-1,-1,-1,-1,-1],"split_conditions":[5E0,1.727E2,8E0,4E0,-3.1579165E-3,3.732E1,1.346E2,3.886E1,1.63E1,6E0,7.84E1,1.333E2,1.639E2,-1.6287574E-1,1E0,1.397E2,1.612E2,1.086E2,8.92E1,6E0,1.181E2,1.276E2,2.0760281E-1,6E0,3.865E1,-1.00894794E-1,5.0615303E-2,2E0,1.5667161E-1,1.106E2,6.89E1,1.612E2,9.36E1,2.7421024E-1,9.14E1,9.2E1,9.82E1,6E0,9.94E1,6.813941E-2,-1.1163986E-1,-1.5542275E-1,8.18E1,5.39E1,1.664E2,-1.2638402E-1,6.3304074E-2,-1.20480575E-1,-1.5329932E-1,1.663553E-1,-1.379661E-1,-1.05853856E-1,3.1591424E-1,4.2041042E-1,6.558903E-3,-6.688479E-2,2.0970035E-1,1.5774934E-1,-1.1571441E-1,2.8124434E-1,9.292719E-2,-4.8333984E-2,2.6091966E-1,2.4566577E-1,-2.6041308E-2,-1.30615E-1,4.8701975E-2,1.9140571E-1,-5.610639E-2,-2.1747318E-3,-1.23668864E-1],"split_indices":[5,2,5,5,0,4,2,4,0,5,1,2,2,0,6,2,2,1,0,5,2,2,0,6,4,0,0,7,0,2,1,2,3,0,0,3,3,5,3,0,0,0,0,0,2,0,0,0,0,0,0,0,0,0,0,0,0,0,0,0,0,0,0,0,0,0,0,0,0,0,0],"split_type":[0,0,0,0,0,0,0,0,0,0,0,0,0,0,0,0,0,0,0,0,0,0,0,0,0,0,0,0,0,0,0,0,0,0,0,0,0,0,0,0,0,0,0,0,0,0,0,0,0,0,0,0,0,0,0,0,0,0,0,0,0,0,0,0,0,0,0,0,0,0,0],"sum_hessian":[4.0137886E3,2.2019822E3,1.8118064E3,2.2001956E3,1.7865927E0,1.7355835E3,7.622289E1,1.9190459E3,2.8114972E2,2.306158E2,1.5049677E3,4.2777076E0,7.194518E1,1.9165511E3,2.4946806E0,5.016798E0,2.7613293E2,1.7046516E2,6.0150635E1,9.523968E1,1.409728E3,3.2386236E0,1.039084E0,4.0954647E1,3.0990538E1,1.3804905E0,1.1141901E0,3.6960344E0,1.3207633E0,2.704021E2,5.7308354E0,1.5563986E2,1.4825298E1,5.615485E1,3.9957833E0,6.57999E1,2.9439781E1,7.47537E1,1.3349742E3,1.0028665E0,2.235757E0,3.5275352E1,5.6792936E0,7.4256845E0,2.3564854E1,2.680022E0,1.0160124E0,2.8006533E1,2.4239557E2,1.2332274E0,4.497608E0,1.5030511E2,5.334749E0,6.383638E0,8.44166E0,1.4977937E0,2.4979897E0,9.345395E0,5.6454502E1,2.7442505E1,1.9972769E0,4.7239353E1,2.7514347E1,1.3122567E3,2.2717537E1,4.477133E0,1.2021608E0,1.1459761E0,6.2797084E0,3.81023E0,1.9754623E1],"tree_param":{"num_deleted":"0","num_feature":"8","num_nodes":"71","size_leaf_vector":"1"}},{"base_weights":[-1.4607982E-1,-5.009708E-1,6.185999E-1,-5.111469E-1,-3.384334E-1,7.1135855E-1,9.2131674E-2,6.376502E-2,-5.121728E-1,-2.6239333E-1,-1.4820369E-1,3.2886472E-1,7.494359E-1,-2.7837005E-1,5.4623663E-1,-5.141484E-1,-2.9691723E-1,-3.1768152E-1,4.5749995E-1,2.3412898E-1,3.7578702E-2,1.6195928E-1,7.618683E-1,-3.5749775E-1,4.4819674E-1,1.5602559E-1,8.9494437E-1,-1.5455537E-1,-2.2165783E-1,-1.3922648E-1,1.6492876E-1,-3.752886E-1,1.876706E-1,2.8399315E-1,-8.5542664E-2,-3.2275334E-1,1.7553478E-1,-3.1012398E-1,4.247841E-1,5.7587016E-1,7.899438E-1,-4.057074E-1,1.15042835E-1,3.3619965E-4,2.8768894E-1,-8.643531E-3,2.7708977E-1,3.3248588E-1,1.0433556E0,-1.17358856E-1,6.569845E-2,1.7760873E-1,-9.112892E-2,-1.4829934E-1,-6.3378155E-2,-1.1013792E-1,2.5752744E-1,-1.42216E-1,1.6255015E-1,-1.3493016E-1,8.280788E-3,-2.1332944E-2,1.7888677E-1,-8.183615E-2,1.7979741E-1,2.856715E-1,2.1637164E-1,-1.3348307E-1,5.5901356E-2,-8.6389594E-2,9.006739E-2,-6.562856E-2,1.73381E-1,-2.2772994E-2,1.5407667E-1,4.039742E-1,1.990956E-1],"categories":[],"categories_nodes":[],"categories_segments":[],"categories_sizes":[],"default_left":[0,0,0,0,0,0,0,0,0,0,0,0,0,0,0,0,0,0,0,0,0,0,0,0,0,0,0,0,0,0,0,0,0,0,0,0,0,0,0,0,0,0,0,0,0,0,0,0,0,0,0,0,0,0,0,0,0,0,0,0,0,0,0,0,0,0,0,0,0,0,0,0,0,0,0,0,0],"id":9,"left_children":[1,3,5,7,9,11,13,-1,15,17,-1,19,21,23,25,27,29,31,33,-1,35,37,39,41,43,45,47,-1,49,-1,51,53,55,-1,-1,57,-1,59,61,63,65,67,-1,69,-1,71,-1,73,75,-1,-1,-1,-1,-1,-1,-1,-1,-1,-1,-1,-1,-1,-1,-1,-1,-1,-1,-1,-1,-1,-1,-1,-1,-1,-1,-1,-1],"loss_changes":[4.0565616E2,1.5153198E0,2.307814E1,8.205719E-1,6.16868E-1,5.6197357E0,1.2289522E1,0E0,2.5456238E-1,1.9172101E0,0E0,5.00167E0,2.546341E0,2.4823067E0,4.316781E0,1.7295837E-1,9.3164665E-1,1.2911682E0,1.5721891E0,0E0,4.983339E0,1.2292008E0,1.4129486E0,1.476563E0,1.0085719E0,2.1146963E0,1.0791969E0,0E0,4.6665883E-1,0E0,9.1674775E-1,6.3708115E-1,2.1600208E0,0E0,0E0,2.25835E0,0E0,1.8885902E-1,5.6152534E-1,1.1706772E0,2.7484894E0,9.007387E-1,0E0,3.7611297E-1,0E0,1.9399146E0,0E0,4.113422E-1,6.088228E-1,0E0,0E0,0E0,0E0,0E0,0E0,0E0,0E0,0E0,0E0,0E0,0E0,0E0,0E0,0E0,0E0,0E0,0E0,0E0,0E0,0E0,0E0,0E0,0E0,0E0,0E0,0E0,0E0],"parents":[2147483647,0,0,1,1,2,2,3,3,4,4,5,5,6,6,8,8,9,9,11,11,12,12,13,13,14,14,15,15,16,16,17,17,18,18,20,20,21,21,22,22,23,23,24,24,25,25,26,26,28,28,30,30,31,31,32,32,35,35,37,37,38,38,39,39,40,40,41,41,43,43,45,45,47,47,48,48],"right_children":[2,4,6,8,10,12,14,-1,16,18,-1,20,22,24,26,28,30,32,34,-1,36,38,40,42,44,46,48,-1,50,-1,52,54,56,-1,-1,58,-1,60,62,64,66,68,-1,70,-1,72,-1,74,76,-1,-1,-1,-1,-1,-1,-1,-1,-1,-1,-1,-1,-1,-1,-1,-1,-1,-1,-1,-1,-1,-1,-1,-1,-1,-1,-1,-1],"split_conditions":[7E0,6E0,9.19E1,8.71E1,7.08E1,3.824E1,1.079E2,6.376502E-2,3.89E1,6.96E1,-1.4820369E-1,8.77E1,9.3E1,3.931E1,3.886E1,1.709E2,3E0,1.63E2,3E0,2.3412898E-1,8E0,3.871E1,1.44E2,8.92E1,1.557E2,6E0,6.07E1,-1.5455537E-1,1.053E2,-1.3922648E-1,9.58E1,3.828E1,9.48E1,2.8399315E-1,-8.5542664E-2,1.2E2,1.7553478E-1,7.08E1,1.503E2,9.81E1,8E0,8E0,1.15042835E-1,1.022E2,2.8768894E-1,8E0,2.7708977E-1,1.129E2,8E0,-1.17358856E-1,6.569845E-2,1.7760873E-1,-9.112892E-2,-1.4829934E-1,-6.3378155E-2,-1.1013792E-1,2.5752744E-1,-1.42216E-1,1.6255015E-1,-1.3493016E-1,8.280788E-3,-2.1332944E-2,1.7888677E-1,-8.183615E-2,1.7979741E-1,2.856715E-1,2.1637164E-1,-1.3348307E-1,5.5901356E-2,-8.6389594E-2,9.006739E-2,-6.562856E-2,1.73381E-1,-2.2772994E-2,1.5407667E-1,4.039742E-1,1.990956E-1],"split_indices":[5,5,3,3,0,4,1,0,4,0,0,3,1,4,4,2,6,2,7,0,5,4,2,0,2,7,0,0,1,0,1,4,3,0,0,1,0,0,2,1,5,5,0,1,0,5,0,1,5,0,0,0,0,0,0,0,0,0,0,0,0,0,0,0,0,0,0,0,0,0,0,0,0,0,0,0,0],"split_type":[0,0,0,0,0,0,0,0,0,0,0,0,0,0,0,0,0,0,0,0,0,0,0,0,0,0,0,0,0,0,0,0,0,0,0,0,0,0,0,0,0,0,0,0,0,0,0,0,0,0,0,0,0,0,0,0,0,0,0,0,0,0,0,0,0,0,0,0,0,0,0,0,0,0,0,0,0],"sum_hessian":[1.4926597E3,1.0197394E3,4.7292032E2,9.5763885E2,6.2100502E1,4.0177942E2,7.114089E1,1.063717E0,9.5657513E2,4.3517586E1,1.8582916E1,3.7248463E1,3.6453098E2,3.938989E1,3.1751E1,9.464997E2,1.007545E1,4.0932648E1,2.5849388E0,1.394736E1,2.3301104E1,7.845161E0,3.5668582E2,3.597946E1,3.4104261E0,1.566688E1,1.608412E1,9.4239996E2,4.09974E0,7.3941784E0,2.6812713E0,3.6975082E1,3.9575648E0,1.3928417E0,1.1920972E0,1.4300523E1,9.000581E0,2.7413003E0,5.1038604E0,4.9600136E1,3.0708566E2,3.4206375E1,1.7730868E0,2.3502717E0,1.0601547E0,1.3713716E1,1.9531641E0,4.03444E0,1.2049681E1,3.0417E0,1.0580401E0,1.2651961E0,1.4160752E0,2.0258724E1,1.6716358E1,2.4137554E0,1.5438092E0,1.2555118E1,1.7454052E0,1.7046942E0,1.0366063E0,1.461994E0,3.6418662E0,1.0480485E0,4.8552086E1,8.7510086E1,2.1957559E2,3.2313362E1,1.893015E0,1.2185559E0,1.1317157E0,1.0558589E1,3.1551266E0,1.4178857E0,2.6165545E0,5.283758E0,6.765922E0],"tree_param":{"num_deleted":"0","num_feature":"8","num_nodes":"77","size_leaf_vector":"1"}},{"base_weights":[3.5045195E-2,4.349843E-1,-6.8856066E-1,1.9287677E-1,1.809136E-1,-2.0839103E-1,-1.8232882E-1,3.3411244E-1,-2.4237633E-1,4.6493477E-1,9.391466E-3,1.2993854E-1,-4.3443444E-1,5.329437E-1,1.071896E-1,1.9368455E-1,-4.2111447E-1,2.8932998E-1,-5.0571156E-1,-9.6774966E-2,-6.026941E-1,5.272741E-2,1.7455553E-1,-7.259137E-2,1.1252772E-1,1.0674176E-1,-8.8271E-2,-1.6558725E-1,5.260535E-2,1.1958913E-1,-9.608565E-2,6.323774E-2,-2.0031476E-1,7.692313E-2,-1.1628043E-1,1.500774E-1,-1.9040486E-1],"categories":[],"categories_nodes":[],"categories_segments":[],"categories_sizes":[],"default_left":[0,0,0,0,0,0,0,0,0,0,0,0,0,0,0,0,0,0,0,0,0,0,0,0,0,0,0,0,0,0,0,0,0,0,0,0,0],"id":10,"left_children":[1,3,5,-1,7,-1,-1,9,11,13,15,17,19,21,23,25,27,29,31,33,35,-1,-1,-1,-1,-1,-1,-1,-1,-1,-1,-1,-1,-1,-1,-1,-1],"loss_changes":[2.1256858E3,2.4980225E2,8.613281E-1,0E0,1.3823734E2,0E0,0E0,6.646683E1,4.0582058E1,2.7079376E1,3.581435E1,1.976482E1,2.1196465E1,1.626535E1,1.6873566E1,2.5105656E1,1.0657734E1,1.0485529E1,4.6891146E0,1.3001822E1,9.120216E0,0E0,0E0,0E0,0E0,0E0,0E0,0E0,0E0,0E0,0E0,0E0,0E0,0E0,0E0,0E0,0E0],"parents":[2147483647,0,0,1,1,2,2,4,4,7,7,8,8,9,9,10,10,11,11,12,12,13,13,14,14,15,15,16,16,17,17,18,18,19,19,20,20],"right_children":[2,4,6,-1,8,-1,-1,10,12,14,16,18,20,22,24,26,28,30,32,34,36,-1,-1,-1,-1,-1,-1,-1,-1,-1,-1,-1,-1,-1,-1,-1,-1],"split_conditions":[4E0,3E0,8E0,1.9287677E-1,3.74E1,-2.0839103E-1,-1.8232882E-1,4.79E1,1E0,8.81E1,1.321E2,2E0,7.69E1,9.48E1,9.7E1,2E0,9.92E1,3.805E1,2.88E1,3.97E1,1.46E1,5.272741E-2,1.7455553E-1,-7.259137E-2,1.1252772E-1,1.0674176E-1,-8.8271E-2,-1.6558725E-1,5.260535E-2,1.1958913E-1,-9.608565E-2,6.323774E-2,-2.0031476E-1,7.692313E-2,-1.1628043E-1,1.500774E-1,-1.9040486E-1],"split_indices":[5,5,5,0,4,0,0,0,7,1,2,6,1,3,3,7,3,4,0,0,0,0,0,0,0,0,0,0,0,0,0,0,0,0,0,0,0],"split_type":[0,0,0,0,0,0,0,0,0,0,0,0,0,0,0,0,0,0,0,0,0,0,0,0,0,0,0,0,0,0,0,0,0,0,0,0,0],"sum_hessian":[7.343156E3,4.72953E3,2.6136262E3,2.6000498E3,2.12948E3,2.4237617E3,1.8986469E2,1.5637366E3,5.6574335E2,1.1143569E3,4.4937958E2,1.9263452E2,3.731088E2,9.3594073E2,1.7841623E2,3.1505807E2,1.343215E2,1.5445038E2,3.818413E1,1.24613174E2,2.4849564E2,1.13273544E2,8.226672E2,7.750277E1,1.0091347E2,2.3668549E2,7.83726E1,1.1021822E2,2.410328E1,1.3126198E2,2.3188404E1,6.9859385E0,3.1198193E1,5.632695E1,6.8286224E1,6.591346E0,2.4190428E2],"tree_param":{"num_deleted":"0","num_feature":"8","num_nodes":"37","size_leaf_vector":"1"}},{"base_weights":[8.430891E-3,-5.3039527E-1,2.2238758E-1,-4.202263E-1,-5.326901E-1,3.6354822E-1,-1.6495848E-1,-2.583341E-1,-1.6759679E-1,-5.3549176E-1,-4.2463487E-1,1.2760988E-1,5.922348E-1,-3.3329567E-1,9.030049E-2,-5.364899E-1,-3.0585745E-1,-4.5817974E-1,6.3976556E-2,-2.780369E-1,3.3709893E-1,6.7966026E-1,7.8592926E-2,-1.6128638E-1,4.7327302E-2,-5.5068344E-1,-5.2057046E-1,-1.5307927E-1,1.6648945E-1,3.027231E-2,-4.9592155E-1,-5.904599E-4,3.3787854E-2,-3.2512733E-1,5.2596694E-1,-2.548059E-2,5.555152E-1,7.339683E-1,1.911753E-1,7.926844E-1,-1.12988606E-1,-1.3728707E-1,2.1325389E-1,-9.459064E-2,-1.6551754E-1,-1.5651374E-1,-2.6918408E-2,-1.089218E-1,1.3027245E-1,-6.4744174E-2,-1.611307E-1,-1.16220504E-1,5.3393748E-2,-8.9076504E-2,2.1591352E-1,-5.1021766E-2,2.0173049E-1,6.306655E-2,2.2208484E-1,2.3205103E-1,8.6088866E-2,2.4225214E-1,-3.5282625E-3,6.778042E-2,2.4770707E-1,-8.737165E-2,1.7392586E-1],"categories":[],"categories_nodes":[],"categories_segments":[],"categories_sizes":[],"default_left":[0,0,0,0,0,0,0,0,0,0,0,0,0,0,0,0,0,0,0,0,0,0,0,0,0,0,0,0,0,0,0,0,0,0,0,0,0,0,0,0,0,0,0,0,0,0,0,0,0,0,0,0,0,0,0,0,0,0,0,0,0,0,0,0,0,0,0],"id":11,"left_children":[1,3,5,7,9,11,-1,13,-1,15,17,19,21,23,-1,25,27,29,31,33,35,37,39,-1,41,43,45,-1,-1,47,49,-1,-1,51,53,55,57,59,61,63,65,-1,-1,-1,-1,-1,-1,-1,-1,-1,-1,-1,-1,-1,-1,-1,-1,-1,-1,-1,-1,-1,-1,-1,-1,-1,-1],"loss_changes":[6.717609E2,1.9488525E-1,4.5486044E2,7.191706E-1,2.6263428E-1,1.9021686E2,0E0,9.229735E-1,0E0,1.9665527E-1,7.7895737E-1,1.4771486E2,8.0356445E1,1.4079062E0,0E0,6.707764E-2,1.8910685E0,8.0626583E-1,1.2463301E-2,2.2590328E1,9.077023E1,4.04505E1,3.5875732E1,0E0,2.7136178E0,2.4749756E-2,3.2531738E-1,0E0,0E0,7.9659975E-1,3.443346E-1,0E0,0E0,1.7614231E1,5.4980545E0,4.3686546E1,4.5475204E1,2.4106384E1,1.9326302E1,8.5085297E-1,2.574472E1,0E0,0E0,0E0,0E0,0E0,0E0,0E0,0E0,0E0,0E0,0E0,0E0,0E0,0E0,0E0,0E0,0E0,0E0,0E0,0E0,0E0,0E0,0E0,0E0,0E0,0E0],"parents":[2147483647,0,0,1,1,2,2,3,3,4,4,5,5,7,7,9,9,10,10,11,11,12,12,13,13,15,15,16,16,17,17,18,18,19,19,20,20,21,21,22,22,24,24,25,25,26,26,29,29,30,30,33,33,34,34,35,35,36,36,37,37,38,38,39,39,40,40],"right_children":[2,4,6,8,10,12,-1,14,-1,16,18,20,22,24,-1,26,28,30,32,34,36,38,40,-1,42,44,46,-1,-1,48,50,-1,-1,52,54,56,58,60,62,64,66,-1,-1,-1,-1,-1,-1,-1,-1,-1,-1,-1,-1,-1,-1,-1,-1,-1,-1,-1,-1,-1,-1,-1,-1,-1,-1],"split_conditions":[3E0,5.06E1,6E0,3.71E1,6.53E1,4E0,-1.6495848E-1,1.436E2,-1.6759679E-1,1.057E2,3.752E1,3.675E1,3.826E1,3.04E1,9.030049E-2,7.55E1,1.352E2,5.64E1,9.75E1,3E0,1E0,1.039E2,5E0,-1.6128638E-1,4.89E1,9.16E1,4E0,-1.5307927E-1,1.6648945E-1,1E0,6.64E1,-5.904599E-4,3.3787854E-2,9.05E1,3.2E1,2E0,7.69E1,7.38E1,5E0,6.33E1,9.64E1,-1.3728707E-1,2.1325389E-1,-9.459064E-2,-1.6551754E-1,-1.5651374E-1,-2.6918408E-2,-1.089218E-1,1.3027245E-1,-6.4744174E-2,-1.611307E-1,-1.16220504E-1,5.3393748E-2,-8.9076504E-2,2.1591352E-1,-5.1021766E-2,2.0173049E-1,6.306655E-2,2.2208484E-1,2.3205103E-1,8.6088866E-2,2.4225214E-1,-3.5282625E-3,6.778042E-2,2.4770707E-1,-8.737165E-2,1.7392586E-1],"split_indices":[5,1,5,0,0,5,0,2,0,1,4,4,4,0,0,1,2,1,3,7,7,1,5,0,1,3,7,0,0,6,0,0,0,1,0,6,1,0,5,1,3,0,0,0,0,0,0,0,0,0,0,0,0,0,0,0,0,0,0,0,0,0,0,0,0,0,0],"split_type":[0,0,0,0,0,0,0,0,0,0,0,0,0,0,0,0,0,0,0,0,0,0,0,0,0,0,0,0,0,0,0,0,0,0,0,0,0,0,0,0,0,0,0,0,0,0,0,0,0,0,0,0,0,0,0,0,0,0,0,0,0,0,0,0,0,0,0],"sum_hessian":[5.824912E3,1.655142E3,4.16977E3,3.753028E1,1.6176117E3,3.5258108E3,6.4395935E2,1.8620245E1,1.8910034E1,1.5728748E3,4.4736843E1,1.7361573E3,1.7896536E3,1.6776058E1,1.8441868E0,1.5647368E3,8.137923E0,4.19211E1,2.8157458E0,5.911498E2,1.1450076E3,1.5290717E3,2.605819E2,1.06476965E1,6.128362E0,8.094524E2,7.552845E2,6.9054294E0,1.2324942E0,3.0210295E0,3.890007E1,1.6027522E0,1.2129937E0,5.590045E2,3.2145233E1,4.3077985E2,7.142278E2,1.3756311E3,1.5344049E2,5.445849E1,2.0612343E2,3.6562176E0,2.4721446E0,4.9044447E0,8.04548E2,7.5307745E2,2.207E0,1.5819352E0,1.4390943E0,5.7858553E0,3.3114212E1,4.9763718E2,6.1367363E1,6.024586E0,2.612065E1,3.574755E2,7.3304344E1,2.4970917E2,4.645186E2,1.2631797E3,1.1245142E2,3.7269924E1,1.1617057E2,3.4287086E0,5.102978E1,1.6440083E2,4.1722607E1],"tree_param":{"num_deleted":"0","num_feature":"8","num_nodes":"67","size_leaf_vector":"1"}},{"base_weights":[-2.1885715E-2,-5.193414E-1,4.7905302E-1,-5.2809834E-1,-4.5972064E-1,5.0933975E-1,-3.3238906E-1,-5.287142E-1,3.9161377E-2,5.9295747E-2,-4.7045445E-1,1.7857267E-1,5.9974563E-1,1.5990734E-1,-3.6811802E-1,-1.5878788E-1,-1.1484372E-1,-1.0891088E-1,3.724594E-1,-4.7691947E-1,-1.7587708E-1,-1.11740455E-1,7.2201306E-1,6.2887126E-1,5.9311505E-2,4.4846207E-1,-9.744994E-2,-4.8018596E-1,-2.1573709E-1,5.552178E-2,-9.7579546E-2,1.1938841E-2,1.7816286E-1,-3.6329564E-1,-4.8851082E-1,1.2398495E-1,-1.3215199E-1,4.454238E-1,-2.7063867E-1,7.536696E-1,3.0066687E-1,5.038515E-1,7.279089E-1,-2.880502E-1,2.2534792E-1,1.8430658E-2,2.1502881E-1,-1.5211616E-1,-2.614378E-1,-2.8812343E-1,1.388716E-1,-1.5554395E-1,2.7709324E-2,-1.4901203E-1,-7.255003E-2,-3.381493E-2,2.4485023E-1,-1.0069784E-1,1.1103112E-1,2.2847639E-1,1.821165E-2,1.634958E-1,-1.21793844E-1,8.7663285E-2,2.0471266E-1,2.517438E-1,1.595399E-1,-1.1170313E-1,2.2269851E-1,-1.2345036E-1,5.514295E-2,-5.1864325E-3,-1.13806196E-1,1.09404236E-1,-9.070196E-2],"categories":[],"categories_nodes":[],"categories_segments":[],"categories_sizes":[],"default_left":[0,0,0,0,0,0,0,0,0,0,0,0,0,0,0,0,0,0,0,0,0,0,0,0,0,0,0,0,0,0,0,0,0,0,0,0,0,0,0,0,0,0,0,0,0,0,0,0,0,0,0,0,0,0,0,0,0,0,0,0,0,0,0,0,0,0,0,0,0,0,0,0,0,0,0],"id":12,"left_children":[1,3,5,7,9,11,13,15,-1,17,19,21,23,25,27,-1,29,-1,31,33,35,37,39,41,43,45,-1,47,49,-1,-1,-1,-1,51,53,-1,-1,55,57,59,61,63,65,67,-1,-1,-1,-1,69,71,73,-1,-1,-1,-1,-1,-1,-1,-1,-1,-1,-1,-1,-1,-1,-1,-1,-1,-1,-1,-1,-1,-1,-1,-1],"loss_changes":[8.788789E2,6.810913E-1,4.335675E1,6.921692E-1,1.3334541E0,5.0563232E1,1.1816888E0,3.067932E-1,0E0,8.806855E-1,3.5359192E-1,5.7689148E1,2.090268E1,8.47372E-1,9.179392E-1,0E0,2.7605286E-1,0E0,2.5111574E-1,1.17801666E-1,1.1981711E0,2.1268173E1,1.471077E0,1.5261261E1,1.6830542E1,3.261261E-1,0E0,6.522751E-2,7.373296E-1,0E0,0E0,0E0,0E0,1.7912962E0,2.8532028E-1,0E0,0E0,1.1138632E1,7.893467E0,5.9970856E-1,2.0440843E0,2.1002945E1,1.4868286E1,4.336646E0,0E0,0E0,0E0,0E0,4.5954195E-1,5.58916E-1,6.363091E-1,0E0,0E0,0E0,0E0,0E0,0E0,0E0,0E0,0E0,0E0,0E0,0E0,0E0,0E0,0E0,0E0,0E0,0E0,0E0,0E0,0E0,0E0,0E0,0E0],"parents":[2147483647,0,0,1,1,2,2,3,3,4,4,5,5,6,6,7,7,9,9,10,10,11,11,12,12,13,13,14,14,16,16,18,18,19,19,20,20,21,21,22,22,23,23,24,24,25,25,27,27,28,28,33,33,34,34,37,37,38,38,39,39,40,40,41,41,42,42,43,43,48,48,49,49,50,50],"right_children":[2,4,6,8,10,12,14,16,-1,18,20,22,24,26,28,-1,30,-1,32,34,36,38,40,42,44,46,-1,48,50,-1,-1,-1,-1,52,54,-1,-1,56,58,60,62,64,66,68,-1,-1,-1,-1,70,72,74,-1,-1,-1,-1,-1,-1,-1,-1,-1,-1,-1,-1,-1,-1,-1,-1,-1,-1,-1,-1,-1,-1,-1,-1],"split_conditions":[5E0,4E0,8E0,1.727E2,1.63E1,1.298E2,1.346E2,3.886E1,3.9161377E-2,1.33E2,1.612E2,6E0,9.79E1,6E0,1.639E2,-1.5878788E-1,3.89E1,-1.0891088E-1,1.21E1,1.106E2,6.89E1,9.28E1,5E0,5.96E1,6E0,7.68E1,-9.744994E-2,6E0,8.59E1,5.552178E-2,-9.7579546E-2,1.1938841E-2,1.7816286E-1,9.72E1,3.849E1,1.2398495E-1,-1.3215199E-1,8.91E1,3.849E1,1.296E2,3.861E1,6E0,7E0,4E0,2.2534792E-1,1.8430658E-2,2.1502881E-1,-1.5211616E-1,8.18E1,3.865E1,6E0,-1.5554395E-1,2.7709324E-2,-1.4901203E-1,-7.255003E-2,-3.381493E-2,2.4485023E-1,-1.0069784E-1,1.1103112E-1,2.2847639E-1,1.821165E-2,1.634958E-1,-1.21793844E-1,8.7663285E-2,2.0471266E-1,2.517438E-1,1.595399E-1,-1.1170313E-1,2.2269851E-1,-1.2345036E-1,5.514295E-2,-5.1864325E-3,-1.13806196E-1,1.09404236E-1,-9.070196E-2],"split_indices":[5,5,5,2,0,2,2,4,0,2,2,5,3,7,2,0,4,0,0,2,1,3,6,0,5,0,0,6,0,0,0,0,0,3,4,0,0,1,4,2,4,5,5,6,0,0,0,0,0,4,7,0,0,0,0,0,0,0,0,0,0,0,0,0,0,0,0,0,0,0,0,0,0,0,0],"split_type":[0,0,0,0,0,0,0,0,0,0,0,0,0,0,0,0,0,0,0,0,0,0,0,0,0,0,0,0,0,0,0,0,0,0,0,0,0,0,0,0,0,0,0,0,0,0,0,0,0,0,0,0,0,0,0,0,0,0,0,0,0,0,0,0,0,0,0,0,0,0,0,0,0,0,0],"sum_hessian":[3.5248767E3,1.7685684E3,1.7563082E3,1.5352207E3,2.3334766E2,1.6934724E3,6.2835827E1,1.5339836E3,1.2370737E0,4.6364326E0,2.2871123E2,3.6414703E2,1.3293253E3,4.0166287E0,5.88192E1,1.5315634E3,2.4203653E0,1.9063195E0,2.7301133E0,2.2319386E2,5.5173664E0,2.3786874E2,1.2627828E2,1.2611923E3,6.813308E1,2.5647397E0,1.451889E0,3.2653267E1,2.616593E1,1.0476309E0,1.3727344E0,1.56242E0,1.1676934E0,2.3655315E1,1.9953854E2,1.5359805E0,3.981386E0,5.2384247E1,1.854845E2,1.1672015E2,9.55813E0,5.6016174E2,7.010305E2,4.574778E1,2.23853E1,1.5532049E0,1.0115348E0,2.7907526E1,4.745742E0,2.1885857E1,4.280074E0,1.7542873E1,6.1124425E0,1.9214104E2,7.3975024E0,2.1185804E1,3.119844E1,1.6882838E2,1.6656105E1,1.1530358E2,1.4165719E0,7.2724814E0,2.285649E0,2.5751462E2,3.0264713E2,4.452162E2,2.5581433E2,4.287859E1,2.8691921E0,3.606143E0,1.139599E0,5.8143497E0,1.6071507E1,2.9458585E0,1.3342155E0],"tree_param":{"num_deleted":"0","num_feature":"8","num_nodes":"75","size_leaf_vector":"1"}},{"base_weights":[-1.4158875E-1,-4.9375898E-1,5.414242E-1,-5.0633705E-1,-3.0691603E-1,6.2002724E-1,9.620993E-2,6.281825E-2,-5.0760996E-1,-2.246044E-1,-1.4564505E-1,-1.3475382E-2,6.3735056E-1,-2.9120165E-1,4.496104E-1,-5.1007676E-1,-2.7017397E-1,-2.841708E-1,4.1387728E-1,-3.8635015E-1,3.6085057E-1,3.2403457E-1,6.646473E-1,-3.599213E-1,4.2746755E-1,1.9097832E-1,9.457272E-1,-1.5340997E-1,-1.9037853E-1,-1.3531019E-1,1.5849896E-1,-3.4786424E-1,1.9813676E-1,-8.1888415E-2,2.4129276E-1,-1.4167194E-1,-4.9977675E-3,3.4635767E-2,1.8900004E-1,2.2261253E-2,5.3465456E-1,4.9356297E-1,6.981135E-1,-4.345891E-1,1.4998406E-1,-8.4795356E-2,2.8724894E-1,-4.145538E-2,1.828325E-1,1.6120931E-2,1.0755899E0,7.181654E-2,-1.124536E-1,1.4901237E-1,-8.6140424E-2,-1.4571692E-1,-5.221105E-2,-1.0410759E-1,2.1515343E-1,-9.28564E-2,1.1779763E-1,-8.5376784E-2,1.4233543E-1,2.2187231E-1,1.0573642E-1,1.8136117E-1,3.0836906E-2,2.4466123E-1,1.9167526E-1,-6.491364E-2,-1.5304479E-1,-2.2614416E-2,1.2828109E-1,-5.995907E-2,1.6676527E-1,4.12641E-1,1.6799225E-1],"categories":[],"categories_nodes":[],"categories_segments":[],"categories_sizes":[],"default_left":[0,0,0,0,0,0,0,0,0,0,0,0,0,0,0,0,0,0,0,0,0,0,0,0,0,0,0,0,0,0,0,0,0,0,0,0,0,0,0,0,0,0,0,0,0,0,0,0,0,0,0,0,0,0,0,0,0,0,0,0,0,0,0,0,0,0,0,0,0,0,0,0,0,0,0,0,0],"id":13,"left_children":[1,3,5,7,9,11,13,-1,15,17,-1,19,21,23,25,27,29,31,33,35,37,39,41,43,45,47,49,-1,51,-1,53,55,57,-1,-1,-1,-1,59,-1,61,63,65,67,69,71,-1,-1,73,-1,-1,75,-1,-1,-1,-1,-1,-1,-1,-1,-1,-1,-1,-1,-1,-1,-1,-1,-1,-1,-1,-1,-1,-1,-1,-1,-1,-1],"loss_changes":[2.9960287E2,1.7754974E0,1.4772697E1,8.061981E-1,6.899562E-1,3.959961E0,9.000624E0,0E0,3.1152344E-1,1.6035125E0,0E0,1.6137683E0,2.7822113E0,1.7101223E0,4.216927E0,2.1528625E-1,8.479141E-1,1.1849358E0,1.2227514E0,1.7549515E-1,4.863975E-1,1.897409E0,1.4959412E0,1.1809087E0,1.477819E0,2.3383384E0,1.2732964E0,0E0,4.575469E-1,0E0,7.020053E-1,6.9317436E-1,1.6283208E0,0E0,0E0,0E0,0E0,5.743475E-1,0E0,1.9931344E0,3.9826155E-1,2.3665705E0,1.3310089E0,3.1530237E-1,3.129359E-1,0E0,0E0,1.646393E0,0E0,0E0,7.7263165E-1,0E0,0E0,0E0,0E0,0E0,0E0,0E0,0E0,0E0,0E0,0E0,0E0,0E0,0E0,0E0,0E0,0E0,0E0,0E0,0E0,0E0,0E0,0E0,0E0,0E0,0E0],"parents":[2147483647,0,0,1,1,2,2,3,3,4,4,5,5,6,6,8,8,9,9,11,11,12,12,13,13,14,14,15,15,16,16,17,17,18,18,19,19,20,20,21,21,22,22,23,23,24,24,25,25,26,26,28,28,30,30,31,31,32,32,37,37,39,39,40,40,41,41,42,42,43,43,44,44,47,47,50,50],"right_children":[2,4,6,8,10,12,14,-1,16,18,-1,20,22,24,26,28,30,32,34,36,38,40,42,44,46,48,50,-1,52,-1,54,56,58,-1,-1,-1,-1,60,-1,62,64,66,68,70,72,-1,-1,74,-1,-1,76,-1,-1,-1,-1,-1,-1,-1,-1,-1,-1,-1,-1,-1,-1,-1,-1,-1,-1,-1,-1,-1,-1,-1,-1,-1,-1],"split_conditions":[7E0,6E0,9.19E1,8.71E1,7.08E1,9.32E1,1.062E2,6.281825E-2,3.89E1,6.96E1,-1.4564505E-1,3.871E1,1.381E2,8.92E1,5E0,1.709E2,3E0,1.63E2,9.39E1,7.98E1,1.596E2,3.881E1,3.849E1,3.924E1,3E0,8E0,5.85E1,-1.5340997E-1,4.54E1,-1.3531019E-1,4E0,3.828E1,9.48E1,-8.1888415E-2,2.4129276E-1,-1.4167194E-1,-4.9977675E-3,8E0,1.8900004E-1,1.174E2,1.3E2,8.99E1,8E0,3.787E1,7.27E1,-8.4795356E-2,2.8724894E-1,1.244E2,1.828325E-1,1.6120931E-2,8E0,7.181654E-2,-1.124536E-1,1.4901237E-1,-8.6140424E-2,-1.4571692E-1,-5.221105E-2,-1.0410759E-1,2.1515343E-1,-9.28564E-2,1.1779763E-1,-8.5376784E-2,1.4233543E-1,2.2187231E-1,1.0573642E-1,1.8136117E-1,3.0836906E-2,2.4466123E-1,1.9167526E-1,-6.491364E-2,-1.5304479E-1,-2.2614416E-2,1.2828109E-1,-5.995907E-2,1.6676527E-1,4.12641E-1,1.6799225E-1],"split_indices":[5,5,3,3,0,1,1,0,4,0,0,4,2,0,7,2,6,2,3,0,2,4,4,4,6,5,0,0,0,0,6,4,3,0,0,0,0,5,0,1,2,3,5,4,0,0,0,1,0,0,5,0,0,0,0,0,0,0,0,0,0,0,0,0,0,0,0,0,0,0,0,0,0,0,0,0,0],"split_type":[0,0,0,0,0,0,0,0,0,0,0,0,0,0,0,0,0,0,0,0,0,0,0,0,0,0,0,0,0,0,0,0,0,0,0,0,0,0,0,0,0,0,0,0,0,0,0,0,0,0,0,0,0,0,0,0,0,0,0,0,0,0,0,0,0,0,0,0,0,0,0,0,0,0,0,0,0],"sum_hessian":[1.2434478E3,8.206086E2,4.228392E2,7.672482E2,5.3360313E1,3.59055E2,6.378419E1,1.0718579E0,7.661764E2,3.8069695E1,1.5290619E1,9.563035E0,3.4949197E2,3.0511873E1,3.327232E1,7.5716187E2,9.014547E0,3.5328674E1,2.7410204E0,4.7747116E0,4.7883234E0,2.9039751E1,3.204522E2,2.8304554E1,2.207318E0,2.2781157E1,1.0491163E1,7.535223E2,3.639553E0,6.3030744E0,2.7114732E0,3.145366E1,3.8750143E0,1.1024643E0,1.638556E0,3.6494505E0,1.1252613E0,2.6749344E0,2.1133893E0,1.2391327E1,1.6648424E1,5.500524E1,2.65447E2,2.481804E1,3.4865134E0,1.142864E0,1.0644542E0,1.5225275E1,7.555881E0,1.5129458E0,8.978217E0,1.0036163E0,2.635937E0,1.4763801E0,1.2350931E0,1.6541035E1,1.4912624E1,2.0515895E0,1.8234247E0,1.432951E0,1.2419833E0,7.602803E0,4.7885237E0,6.395865E0,1.0252559E1,4.241339E1,1.2591848E1,8.4685036E1,1.8076195E2,7.3771706E0,1.744087E1,2.326436E0,1.1600775E0,1.2559925E1,2.6653495E0,4.6222873E0,4.3559303E0],"tree_param":{"num_deleted":"0","num_feature":"8","num_nodes":"77","size_leaf_vector":"1"}},{"base_weights":[2.9538708E-2,3.760715E-1,-6.25732E-1,5.833088E-1,1.517509E-1,-1.8874407E-1,-1.7281386E-1,4.991237E-1,5.8499813E-1,2.4978308E-1,-3.4151593E-1,5.1576287E-1,-3.1934917E-2,5.8707297E-1,5.0244826E-1,3.3353078E-1,-2.2265625E-1,-4.6531893E-2,-4.9004766E-1,1.5536659E-2,5.322697E-1,1.7634286E-1,4.0666947E-1,5.1687866E-1,-4.2680606E-2,5.211788E-2,4.3685395E-1,2.439775E-1,-4.1595307E-1,-2.0195243E-1,4.2182606E-1,1.6769089E-1,-5.4498327E-1,1.8097962E-1,1.156123E-1,1.7016064E-1,-1.6110684E-1,1.6316181E-1,2.16261E-2,6.859066E-2,-9.605304E-2,1.4005972E-1,-7.51896E-2,1.17605455E-1,-1.375258E-1,-6.1898243E-2,-2.0618762E-1,1.1223859E-1,-1.05903454E-1,1.4814547E-1,-1.0612447E-1,1.326393E-1,-1.382219E-1,-5.454392E-2,-1.8451406E-1],"categories":[],"categories_nodes":[],"categories_segments":[],"categories_sizes":[],"default_left":[0,0,0,0,0,0,0,0,0,0,0,0,0,0,0,0,0,0,0,0,0,0,0,0,0,0,0,0,0,0,0,0,0,0,0,0,0,0,0,0,0,0,0,0,0,0,0,0,0,0,0,0,0,0,0],"id":14,"left_children":[1,3,5,7,9,-1,-1,11,13,15,17,19,-1,21,23,25,27,29,31,-1,33,-1,35,37,-1,39,41,43,45,47,49,51,53,-1,-1,-1,-1,-1,-1,-1,-1,-1,-1,-1,-1,-1,-1,-1,-1,-1,-1,-1,-1,-1,-1],"loss_changes":[1.4357426E3,1.9216809E2,8.728027E-3,1.361084E-2,9.6184326E1,0E0,0E0,5.495863E-1,6.4941406E-2,6.56908E1,1.4431732E1,3.396902E-1,0E0,3.2592773E-2,6.1738014E-1,4.0949005E1,2.2679665E1,8.207968E0,8.015953E0,0E0,2.4930286E-1,0E0,2.0551262E0,6.498833E-1,0E0,2.5016508E1,2.1379929E1,7.869165E0,9.946741E0,7.482072E0,1.7451692E0,3.251245E0,5.0444603E0,0E0,0E0,0E0,0E0,0E0,0E0,0E0,0E0,0E0,0E0,0E0,0E0,0E0,0E0,0E0,0E0,0E0,0E0,0E0,0E0,0E0,0E0],"parents":[2147483647,0,0,1,1,2,2,3,3,4,4,7,7,8,8,9,9,10,10,11,11,13,13,14,14,15,15,16,16,17,17,18,18,20,20,22,22,23,23,25,25,26,26,27,27,28,28,29,29,30,30,31,31,32,32],"right_children":[2,4,6,8,10,-1,-1,12,14,16,18,20,-1,22,24,26,28,30,32,-1,34,-1,36,38,-1,40,42,44,46,48,50,52,54,-1,-1,-1,-1,-1,-1,-1,-1,-1,-1,-1,-1,-1,-1,-1,-1,-1,-1,-1,-1,-1,-1],"split_conditions":[4E0,3E0,8E0,5.06E1,3.764E1,-1.8874407E-1,-1.7281386E-1,1.574E2,6.53E1,2E0,1E0,1.05E1,-3.1934917E-2,1.057E2,1.483E2,9.6E1,7.27E1,9.86E1,2.08E1,1.5536659E-2,4.89E1,1.7634286E-1,1.397E2,3.752E1,-4.2680606E-2,8.47E1,3E0,2E0,4.83E1,2.88E1,9.3E1,8.47E1,6.99E1,1.8097962E-1,1.156123E-1,1.7016064E-1,-1.6110684E-1,1.6316181E-1,2.16261E-2,6.859066E-2,-9.605304E-2,1.4005972E-1,-7.51896E-2,1.17605455E-1,-1.375258E-1,-6.1898243E-2,-2.0618762E-1,1.1223859E-1,-1.05903454E-1,1.4814547E-1,-1.0612447E-1,1.326393E-1,-1.382219E-1,-5.454392E-2,-1.8451406E-1],"split_indices":[5,5,5,1,4,0,0,2,0,6,7,0,0,1,2,3,1,3,0,0,1,0,2,4,0,1,7,7,0,0,1,1,1,0,0,0,0,0,0,0,0,0,0,0,0,0,0,0,0,0,0,0,0,0,0],"split_type":[0,0,0,0,0,0,0,0,0,0,0,0,0,0,0,0,0,0,0,0,0,0,0,0,0,0,0,0,0,0,0,0,0,0,0,0,0,0,0,0,0,0,0,0,0,0,0,0,0,0,0,0,0,0,0],"sum_hessian":[6.320794E3,4.1346533E3,2.1861406E3,2.1483303E3,1.9863228E3,2.0346371E3,1.5150345E2,4.8094105E1,2.1002363E3,1.6574197E3,3.289031E2,4.6952316E1,1.1417878E0,2.0427804E3,5.7455864E1,1.408104E3,2.493157E2,1.1058821E2,2.183149E2,1.7551808E0,4.5197136E1,2.0322252E3,1.0555128E1,5.6391956E1,1.0639055E0,3.7855875E2,1.0295453E3,7.294897E1,1.7636674E2,8.346116E1,2.7127056E1,1.6670313E1,2.0164458E2,2.8376015E1,1.6821123E1,9.361573E0,1.1935543E0,5.295538E1,3.4365785E0,2.5706247E2,1.21496254E2,9.867885E2,4.275675E1,6.0615273E1,1.23336935E1,1.0049147E2,7.5875275E1,1.7031784E1,6.6429375E1,2.5155317E1,1.9717385E0,1.180948E1,4.8608327E0,3.319182E1,1.6845276E2],"tree_param":{"num_deleted":"0","num_feature":"8","num_nodes":"55","size_leaf_vector":"1"}},{"base_weights":[1.2817516E-2,-4.9430105E-1,1.8426944E-1,-3.6483416E-1,-4.971139E-1,2.9523396E-1,-5.2187914E-1,-1.8687193E-1,-1.5865271E-1,-5.005713E-1,-3.689521E-1,1.1331509E-1,4.7470507E-1,-4.8711687E-1,-1.6255054E-1,-2.6989388E-1,9.846598E-2,-5.017923E-1,-2.4056059E-1,-4.085415E-1,1.1957729E-1,-1.6049016E-1,3.3035624E-1,5.535146E-1,1.2336347E-3,-4.9564755E-1,-3.2512512E-2,-1.5144591E-1,1.126522E-1,-5.1933604E-1,-4.822889E-1,-1.426952E-1,1.6433197E-1,-4.5569983E-1,7.452319E-2,1.353074E-2,4.4843644E-2,-2.4173217E-1,4.895157E-1,5.5814315E-2,5.601002E-1,5.7593133E-2,6.055524E-1,6.678237E-1,-2.2283398E-1,-5.308866E-1,-4.1409653E-1,-1.240402E-1,1.8227959E-1,-1.2588882E-1,2.0099199E-1,-7.728216E-2,-1.5618417E-1,-1.3120137E-1,-1.5175542E-1,-1.5352124E-1,-1.9176355E-4,2.0527434E-1,-1.1110663E-1,-9.5258534E-2,7.370283E-2,2.5384277E-2,2.1571472E-1,-4.099463E-2,1.1838388E-1,7.3756324E-3,1.9483428E-1,2.1136986E-1,-4.165277E-2,1.9677933E-1,9.670286E-2,2.123863E-1,1.0391826E-1,4.645462E-2,-1.3399516E-1,-6.72372E-2,-1.6121498E-1,6.0513232E-2,-1.4043653E-1],"categories":[],"categories_nodes":[],"categories_segments":[],"categories_sizes":[],"default_left":[0,0,0,0,0,0,0,0,0,0,0,0,0,0,0,0,0,0,0,0,0,0,0,0,0,0,0,0,0,0,0,0,0,0,0,0,0,0,0,0,0,0,0,0,0,0,0,0,0,0,0,0,0,0,0,0,0,0,0,0,0,0,0,0,0,0,0,0,0,0,0,0,0,0,0,0,0,0,0],"id":15,"left_children":[1,3,5,7,9,11,13,15,-1,17,19,21,23,25,-1,27,-1,29,31,33,35,37,39,41,43,45,47,-1,49,51,53,-1,-1,55,57,-1,-1,59,61,63,65,67,69,71,73,75,77,-1,-1,-1,-1,-1,-1,-1,-1,-1,-1,-1,-1,-1,-1,-1,-1,-1,-1,-1,-1,-1,-1,-1,-1,-1,-1,-1,-1,-1,-1,-1,-1],"loss_changes":[4.520597E2,2.970581E-1,3.0461566E2,8.262062E-1,3.8381958E-1,1.09599396E2,1.0235596E-1,8.047239E-1,0E0,2.750244E-1,7.7422667E-1,9.9248764E1,6.3072144E1,7.6908875E-1,0E0,1.4022764E0,0E0,1.7370605E-1,1.6962912E0,8.294606E-1,1.2418181E-3,3.9130432E1,5.8719093E1,3.7361908E1,3.6325363E1,3.5111237E-1,1.4216328E0,0E0,2.2133322E0,7.980347E-2,4.154358E-1,0E0,0E0,8.1453943E-1,1.3290081E0,0E0,0E0,2.4362965E1,7.5979195E0,2.7796661E1,2.4241653E1,1.772789E1,1.8499176E1,5.43993E-1,1.5455997E1,1.4896774E-1,2.2400093E0,0E0,0E0,0E0,0E0,0E0,0E0,0E0,0E0,0E0,0E0,0E0,0E0,0E0,0E0,0E0,0E0,0E0,0E0,0E0,0E0,0E0,0E0,0E0,0E0,0E0,0E0,0E0,0E0,0E0,0E0,0E0,0E0],"parents":[2147483647,0,0,1,1,2,2,3,3,4,4,5,5,6,6,7,7,9,9,10,10,11,11,12,12,13,13,15,15,17,17,18,18,19,19,20,20,21,21,22,22,23,23,24,24,25,25,26,26,28,28,29,29,30,30,33,33,34,34,37,37,38,38,39,39,40,40,41,41,42,42,43,43,44,44,45,45,46,46],"right_children":[2,4,6,8,10,12,14,16,-1,18,20,22,24,26,-1,28,-1,30,32,34,36,38,40,42,44,46,48,-1,50,52,54,-1,-1,56,58,-1,-1,60,62,64,66,68,70,72,74,76,78,-1,-1,-1,-1,-1,-1,-1,-1,-1,-1,-1,-1,-1,-1,-1,-1,-1,-1,-1,-1,-1,-1,-1,-1,-1,-1,-1,-1,-1,-1,-1,-1],"split_conditions":[3E0,5.06E1,6E0,3.71E1,6.53E1,4E0,6.01E1,1.436E2,-1.5865271E-1,1.057E2,3.752E1,3.99E1,1.499E2,5.98E1,-1.6255054E-1,3.04E1,9.846598E-2,7.55E1,1.352E2,1.427E2,9.75E1,3.779E1,1E0,9.2E1,5E0,1.091E2,1.533E2,-1.5144591E-1,4.89E1,9.16E1,3.648E1,-1.426952E-1,1.6433197E-1,2E0,6.79E1,1.353074E-2,4.4843644E-2,2E0,1E0,8.39E1,6.83E1,5E0,3E0,6.79E1,8.91E1,2.98E1,3.751E1,-1.240402E-1,1.8227959E-1,-1.2588882E-1,2.0099199E-1,-7.728216E-2,-1.5618417E-1,-1.3120137E-1,-1.5175542E-1,-1.5352124E-1,-1.9176355E-4,2.0527434E-1,-1.1110663E-1,-9.5258534E-2,7.370283E-2,2.5384277E-2,2.1571472E-1,-4.099463E-2,1.1838388E-1,7.3756324E-3,1.9483428E-1,2.1136986E-1,-4.165277E-2,1.9677933E-1,9.670286E-2,2.123863E-1,1.0391826E-1,4.645462E-2,-1.3399516E-1,-6.72372E-2,-1.6121498E-1,6.0513232E-2,-1.4043653E-1],"split_indices":[5,1,5,0,0,5,0,2,0,1,4,0,2,0,0,0,0,1,2,2,3,4,6,3,5,1,2,0,1,3,4,0,0,6,0,0,0,6,6,1,1,5,6,0,1,0,4,0,0,0,0,0,0,0,0,0,0,0,0,0,0,0,0,0,0,0,0,0,0,0,0,0,0,0,0,0,0,0,0],"split_type":[0,0,0,0,0,0,0,0,0,0,0,0,0,0,0,0,0,0,0,0,0,0,0,0,0,0,0,0,0,0,0,0,0,0,0,0,0,0,0,0,0,0,0,0,0,0,0,0,0,0,0,0,0,0,0,0,0,0,0,0,0,0,0,0,0,0,0,0,0,0,0,0,0,0,0,0,0,0,0],"sum_hessian":[5.1972407E3,1.312692E3,3.8845486E3,3.0693E1,1.281999E3,3.357527E3,5.270215E2,1.5746342E1,1.494666E1,1.2454938E3,3.650528E1,1.6682031E3,1.689324E3,2.0147426E2,3.255472E2,1.3970603E1,1.7757391E0,1.2387467E3,6.746974E0,3.392019E1,2.5850914E0,7.377568E2,9.304463E2,1.4481155E3,2.4120842E2,1.9767462E2,3.7996485E0,8.457269E0,5.513334E0,6.386445E2,6.001023E2,5.5026574E0,1.2443166E0,3.0954918E1,2.9652703E0,1.4591633E0,1.1259279E0,6.5635E2,8.140684E1,4.2446152E2,5.0598477E2,1.3772263E2,1.310393E3,6.0183887E1,1.8102454E2,1.3418286E2,6.349176E1,2.6039858E0,1.1956627E0,2.946385E0,2.5669491E0,4.0871305E0,6.345574E2,2.1310841E2,3.8699387E2,2.745008E1,3.5048373E0,1.0239075E0,1.9413627E0,5.6831976E2,8.803016E1,2.9947495E1,5.145934E1,2.7107004E2,1.533915E2,7.253176E1,4.33453E2,3.1474073E1,1.0624856E2,1.1113794E3,1.9901352E2,5.2434856E1,7.7490296E0,6.7473495E1,1.1355105E2,3.5189931E0,1.3066386E2,4.9004326E0,5.8591328E1],"tree_param":{"num_deleted":"0","num_feature":"8","num_nodes":"79","size_leaf_vector":"1"}},{"base_weights":[-2.0622417E-2,-5.0545955E-1,3.997043E-1,-5.1667064E-1,-4.3148726E-1,2.2318346E-2,4.5256E-1,-5.1742953E-1,4.091412E-2,1.019349E-1,-4.4419032E-1,-1.7570978E-1,6.082546E-1,4.8078167E-1,-2.8909326E-1,-1.554413E-1,-1.04276076E-1,-1.0045809E-1,3.8302988E-1,-4.5181614E-1,-1.3023508E-1,5.1146522E-2,-4.162797E-1,1.9190367E-1,1.4308287E-1,1.4647733E-1,5.2153885E-1,1.7231002E-1,-3.2936412E-1,-9.727377E-2,5.7216763E-2,1.7792824E-1,1.3526765E-2,-4.082227E-1,-5.042065E-1,1.185698E-1,-1.2447576E-1,-1.5322335E-1,6.194026E-1,-4.511685E-1,1.699169E-1,-1.18779905E-1,1.5037678E-1,-1.6789706E-1,6.65064E-1,-4.8329136E-1,5.309531E-1,-1.2943809E-1,1.8700594E-1,-4.6330628E-1,-1.6160984E-1,-5.786769E-2,-1.302416E-1,-1.5484422E-1,-3.3317383E-2,-1.0455842E-1,6.463498E-2,-1.0982411E-1,2.7192536E-1,-1.4828415E-1,-6.317145E-2,1.00005575E-1,-1.10606596E-1,2.0509504E-1,-2.3109421E-2,-2.4953958E-2,-1.598217E-1,9.704781E-2,1.7381345E-1,-1.0140718E-1,6.486982E-2,-1.4912161E-1,-6.48897E-2,-9.5826015E-3,-1.3548274E-1],"categories":[],"categories_nodes":[],"categories_segments":[],"categories_sizes":[],"default_left":[0,0,0,0,0,0,0,0,0,0,0,0,0,0,0,0,0,0,0,0,0,0,0,0,0,0,0,0,0,0,0,0,0,0,0,0,0,0,0,0,0,0,0,0,0,0,0,0,0,0,0,0,0,0,0,0,0,0,0,0,0,0,0,0,0,0,0,0,0,0,0,0,0,0,0],"id":16,"left_children":[1,3,5,7,9,11,13,15,-1,17,19,21,23,25,27,-1,29,-1,31,33,35,37,39,-1,41,43,45,47,49,-1,-1,-1,-1,51,53,-1,-1,55,57,59,-1,-1,-1,61,63,65,67,69,-1,71,73,-1,-1,-1,-1,-1,-1,-1,-1,-1,-1,-1,-1,-1,-1,-1,-1,-1,-1,-1,-1,-1,-1,-1,-1],"loss_changes":[6.218185E2,9.520874E-1,3.2591156E1,6.7785645E-1,1.3499718E0,2.3526646E1,3.0144257E1,3.0410767E-1,0E0,7.7801645E-1,3.918686E-1,8.296511E0,6.5702057E-1,1.8745361E1,1.0448027E0,0E0,2.7899894E-1,0E0,2.3494714E-1,2.1299362E-1,1.0419618E0,9.261428E0,2.7822952E0,0E0,1.0727507E0,2.4811121E1,1.190036E1,7.5099075E-1,1.0317407E0,0E0,0E0,0E0,0E0,5.041504E-1,3.1371307E-1,0E0,0E0,4.3127813E0,6.2932606E0,6.399498E-1,0E0,0E0,0E0,9.6965065E0,8.4410477E-1,1.9208407E-1,1.2068329E1,3.455617E-1,0E0,1.164155E-1,8.655302E-1,0E0,0E0,0E0,0E0,0E0,0E0,0E0,0E0,0E0,0E0,0E0,0E0,0E0,0E0,0E0,0E0,0E0,0E0,0E0,0E0,0E0,0E0,0E0,0E0],"parents":[2147483647,0,0,1,1,2,2,3,3,4,4,5,5,6,6,7,7,9,9,10,10,11,11,12,12,13,13,14,14,16,16,18,18,19,19,20,20,21,21,22,22,24,24,25,25,26,26,27,27,28,28,33,33,34,34,37,37,38,38,39,39,43,43,44,44,45,45,46,46,47,47,49,49,50,50],"right_children":[2,4,6,8,10,12,14,16,-1,18,20,22,24,26,28,-1,30,-1,32,34,36,38,40,-1,42,44,46,48,50,-1,-1,-1,-1,52,54,-1,-1,56,58,60,-1,-1,-1,62,64,66,68,70,-1,72,74,-1,-1,-1,-1,-1,-1,-1,-1,-1,-1,-1,-1,-1,-1,-1,-1,-1,-1,-1,-1,-1,-1,-1,-1],"split_conditions":[5E0,4E0,3.732E1,1.727E2,1.63E1,6E0,8E0,3.886E1,4.091412E-2,1.33E2,1.612E2,9.51E1,8.92E1,4.24E1,1.346E2,-1.554413E-1,1E0,-1.0045809E-1,9.69E1,8.69E1,6.89E1,3E0,1.639E2,1.9190367E-1,1.003E2,6E0,8.6E1,1.333E2,1.639E2,-9.727377E-2,5.7216763E-2,1.7792824E-1,1.3526765E-2,1.106E2,3.858E1,1.185698E-1,-1.2447576E-1,1.399E2,3.677E1,1.018E2,1.699169E-1,-1.18779905E-1,1.5037678E-1,9.34E1,1.265E2,2E0,1.304E2,8.95E1,1.8700594E-1,3.974E1,8.93E1,-5.786769E-2,-1.302416E-1,-1.5484422E-1,-3.3317383E-2,-1.0455842E-1,6.463498E-2,-1.0982411E-1,2.7192536E-1,-1.4828415E-1,-6.317145E-2,1.00005575E-1,-1.10606596E-1,2.0509504E-1,-2.3109421E-2,-2.4953958E-2,-1.598217E-1,9.704781E-2,1.7381345E-1,-1.0140718E-1,6.486982E-2,-1.4912161E-1,-6.48897E-2,-9.5826015E-3,-1.3548274E-1],"split_indices":[5,5,4,2,0,5,5,4,0,2,2,3,0,0,2,0,6,0,3,1,1,7,2,0,1,5,3,2,2,0,0,0,0,2,4,0,0,2,4,1,0,0,0,3,1,6,2,3,0,4,3,0,0,0,0,0,0,0,0,0,0,0,0,0,0,0,0,0,0,0,0,0,0,0,0],"split_type":[0,0,0,0,0,0,0,0,0,0,0,0,0,0,0,0,0,0,0,0,0,0,0,0,0,0,0,0,0,0,0,0,0,0,0,0,0,0,0,0,0,0,0,0,0,0,0,0,0,0,0,0,0,0,0,0,0,0,0,0,0,0,0,0,0,0,0,0,0,0,0,0,0,0,0],"sum_hessian":[3.0492798E3,1.4158859E3,1.6333939E3,1.2243419E3,1.9154396E2,2.0083913E2,1.4325548E3,1.2231282E3,1.2136612E0,4.2919855E0,1.8725198E2,1.5063077E2,5.0208363E1,1.3803799E3,5.2174988E1,1.2207817E3,2.3465147E0,1.6056637E0,2.6863217E0,1.8238287E2,4.869099E0,7.7930275E1,7.270049E1,4.667981E1,3.528554E0,1.5050221E2,1.2298776E3,3.9250426E0,4.8249947E1,1.2874019E0,1.0591128E0,1.1909817E0,1.49534E0,1.0434799E2,7.803489E1,1.5745279E0,3.2945714E0,5.785385E1,2.0076427E1,7.0730156E1,1.9703366E0,1.3665718E0,2.1619823E0,9.4121E1,5.6381214E1,1.0948566E1,1.2189291E3,2.778949E0,1.1460936E0,2.5849106E1,2.240084E1,1.2116601E1,9.223139E1,7.5431E1,2.603891E0,3.785487E1,1.999898E1,4.466156E0,1.5610272E1,5.908794E1,1.1642213E1,2.6730856E1,6.739015E1,5.5080456E1,1.3007573E0,1.4992646E0,9.449302E0,2.3212968E2,9.867994E2,1.7469317E0,1.0320174E0,2.1849863E1,3.9992416E0,1.624661E1,6.154229E0],"tree_param":{"num_deleted":"0","num_feature":"8","num_nodes":"75","size_leaf_vector":"1"}},{"base_weights":[-1.354159E-1,-4.862337E-1,4.8612842E-1,-5.018911E-1,-2.652569E-1,9.565133E-2,5.5976963E-1,5.9915736E-2,-5.0347304E-1,-1.7661147E-1,-1.423217E-1,-1.7286201E-1,6.080161E-1,2.719554E-1,6.044026E-1,-5.065649E-1,-2.3677006E-1,-2.6032338E-1,3.087018E-1,-3.0959055E-1,4.4423255E-1,-8.913285E-2,8.416913E-1,4.9770126E-1,-5.6677945E-2,2.2417854E-1,6.25155E-1,-1.524517E-1,-1.6711648E-1,-1.3080016E-1,1.6812229E-1,-3.6852807E-1,1.8561961E-1,3.293884E-1,-1.652127E-1,-4.158519E-1,4.046559E-1,-1.6434288E-2,1.6396333E-1,-3.4762E-1,1.5878056E-1,1.0721071E0,2.473897E-1,-1.8609418E-1,5.666646E-1,-2.2414377E-1,1.5309158E-1,-3.560516E-1,3.5874254E-1,6.2895405E-1,-3.6310358E-3,-1.0825917E-1,7.094279E-2,1.4831021E-1,-8.376484E-2,-5.541488E-2,-1.4353856E-1,-4.876098E-2,1.7714609E-1,6.773644E-2,-1.0839836E-1,8.7871596E-2,-1.38734E-1,1.0194394E-2,2.4800844E-1,-3.4340035E-2,-1.1682799E-1,4.1821674E-1,1.586946E-1,-7.945272E-2,1.4484333E-1,6.361332E-2,-1.4145906E-1,7.462411E-2,2.25587E-1,-1.2139167E-1,1.7719887E-1,-1.3002183E-1,-2.5998782E-2,1.4634287E-1,-9.321226E-2,2.1424598E-1,1.738905E-1],"categories":[],"categories_nodes":[],"categories_segments":[],"categories_sizes":[],"default_left":[0,0,0,0,0,0,0,0,0,0,0,0,0,0,0,0,0,0,0,0,0,0,0,0,0,0,0,0,0,0,0,0,0,0,0,0,0,0,0,0,0,0,0,0,0,0,0,0,0,0,0,0,0,0,0,0,0,0,0,0,0,0,0,0,0,0,0,0,0,0,0,0,0,0,0,0,0,0,0,0,0,0,0],"id":17,"left_children":[1,3,5,7,9,11,13,-1,15,17,-1,19,21,23,25,27,29,31,33,35,37,39,41,43,45,47,49,-1,51,-1,53,55,57,-1,59,61,63,-1,-1,65,-1,67,69,71,73,75,-1,77,79,81,-1,-1,-1,-1,-1,-1,-1,-1,-1,-1,-1,-1,-1,-1,-1,-1,-1,-1,-1,-1,-1,-1,-1,-1,-1,-1,-1,-1,-1,-1,-1,-1,-1],"loss_changes":[2.2482417E2,2.1465454E0,1.06465225E1,7.822418E-1,7.638109E-1,8.393866E0,3.8546524E0,0E0,3.8560486E-1,1.4495286E0,0E0,3.5386543E0,3.486021E0,3.279213E0,1.9906006E0,2.4526978E-1,7.915129E-1,1.4815403E0,2.2069979E0,2.7174814E0,4.2419255E-1,1.1687555E0,1.8953209E0,1.3352718E0,1.8939444E0,1.3406603E0,6.2618256E-1,0E0,4.2486253E-1,0E0,6.718796E-1,3.946185E-1,9.95774E-1,0E0,4.0770084E-1,1.1173043E0,7.316807E-1,0E0,0E0,3.6553144E-3,0E0,1.1981945E0,8.162075E-1,4.570542E-1,1.2230434E0,2.4690623E0,0E0,3.3840716E-2,1.2841856E0,6.53389E-1,0E0,0E0,0E0,0E0,0E0,0E0,0E0,0E0,0E0,0E0,0E0,0E0,0E0,0E0,0E0,0E0,0E0,0E0,0E0,0E0,0E0,0E0,0E0,0E0,0E0,0E0,0E0,0E0,0E0,0E0,0E0,0E0,0E0],"parents":[2147483647,0,0,1,1,2,2,3,3,4,4,5,5,6,6,8,8,9,9,11,11,12,12,13,13,14,14,15,15,16,16,17,17,18,18,19,19,20,20,21,21,22,22,23,23,24,24,25,25,26,26,28,28,30,30,31,31,32,32,34,34,35,35,36,36,39,39,41,41,42,42,43,43,44,44,45,45,47,47,48,48,49,49],"right_children":[2,4,6,8,10,12,14,-1,16,18,-1,20,22,24,26,28,30,32,34,36,38,40,42,44,46,48,50,-1,52,-1,54,56,58,-1,60,62,64,-1,-1,66,-1,68,70,72,74,76,-1,78,80,82,-1,-1,-1,-1,-1,-1,-1,-1,-1,-1,-1,-1,-1,-1,-1,-1,-1,-1,-1,-1,-1,-1,-1,-1,-1,-1,-1,-1,-1,-1,-1,-1,-1],"split_conditions":[7E0,6E0,1.032E2,8.71E1,7.08E1,1.612E2,3.834E1,5.9915736E-2,3.89E1,6.82E1,-1.423217E-1,8E0,3.844E1,9.01E1,1.346E2,1.709E2,3E0,1.59E2,1.288E2,5E0,1.324E2,9.96E1,5E0,1.296E2,8E0,5.57E1,9.56E1,-1.524517E-1,1.018E2,-1.3080016E-1,9.58E1,1.392E2,1.018E2,3.293884E-1,3.779E1,8.64E1,7E1,-1.6434288E-2,1.6396333E-1,1.639E2,1.5878056E-1,8E0,3.878E1,3E0,6.68E1,9.56E1,1.5309158E-1,5.18E1,1.338E2,8E0,-3.6310358E-3,-1.0825917E-1,7.094279E-2,1.4831021E-1,-8.376484E-2,-5.541488E-2,-1.4353856E-1,-4.876098E-2,1.7714609E-1,6.773644E-2,-1.0839836E-1,8.7871596E-2,-1.38734E-1,1.0194394E-2,2.4800844E-1,-3.4340035E-2,-1.1682799E-1,4.1821674E-1,1.586946E-1,-7.945272E-2,1.4484333E-1,6.361332E-2,-1.4145906E-1,7.462411E-2,2.25587E-1,-1.2139167E-1,1.7719887E-1,-1.3002183E-1,-2.5998782E-2,1.4634287E-1,-9.321226E-2,2.1424598E-1,1.738905E-1],"split_indices":[5,5,1,3,0,2,4,0,4,0,0,5,4,3,2,2,6,2,2,6,2,1,7,2,5,0,3,0,1,0,1,2,1,0,4,3,0,0,0,2,0,5,4,6,0,3,0,0,2,5,0,0,0,0,0,0,0,0,0,0,0,0,0,0,0,0,0,0,0,0,0,0,0,0,0,0,0,0,0,0,0,0,0],"split_type":[0,0,0,0,0,0,0,0,0,0,0,0,0,0,0,0,0,0,0,0,0,0,0,0,0,0,0,0,0,0,0,0,0,0,0,0,0,0,0,0,0,0,0,0,0,0,0,0,0,0,0,0,0,0,0,0,0,0,0,0,0,0,0,0,0,0,0,0,0,0,0,0,0,0,0,0,0,0,0,0,0,0,0],"sum_hessian":[1.0289886E3,6.5787976E2,3.711089E2,6.131628E2,4.4716972E1,5.9248272E1,3.1186063E2,1.097683E0,6.1206506E2,3.2701305E1,1.2015666E1,3.9309887E1,1.9938387E1,4.282139E1,2.690392E2,6.041617E2,7.9034257E0,2.8285862E1,4.415444E0,3.258778E1,6.722106E0,5.160641E0,1.4777745E1,2.5079348E1,1.7742043E1,1.4534827E1,2.545044E2,6.008196E2,3.3420546E0,5.2455044E0,2.6579218E0,2.2902372E1,5.38349E0,1.1625446E0,3.2528992E0,2.8731112E1,3.856669E0,1.2227694E0,5.4993367E0,3.9481974E0,1.212444E0,1.0069671E1,4.708074E0,2.1420202E0,2.2937326E1,1.4163377E1,3.5786645E0,2.4264004E0,1.2108426E1,2.530091E2,1.495311E0,2.3295891E0,1.0124654E0,1.476197E0,1.1817248E0,9.574253E0,1.332812E1,3.216274E0,2.1672158E0,1.03603E0,2.216869E0,1.446224E0,2.7284887E1,2.6285467E0,1.2281221E0,1.168658E0,2.7795393E0,5.338458E0,4.731213E0,1.4431287E0,3.2649455E0,1.0017947E0,1.1402256E0,9.308533E0,1.3628795E1,1.2006993E1,2.1563838E0,1.4120773E0,1.0143231E0,1.0378773E1,1.7296538E0,8.7819626E1,1.6518947E2],"tree_param":{"num_deleted":"0","num_feature":"8","num_nodes":"83","size_leaf_vector":"1"}},{"base_weights":[2.3120701E-2,3.2656887E-1,-1.7511363E-1,5.3913975E-1,1.2708333E-1,5.4138076E-1,4.5566818E-1,-1.9039816E-1,2.4876027E-1,4.3659893E-1,5.4351157E-1,4.82384E-1,5.380719E-2,1.8046291E-1,-3.5069257E-1,3.4720877E-1,-9.2336886E-2,4.7290456E-1,4.068131E-2,5.44333E-1,3.5412964E-1,1.8590687E-1,5.31312E-1,1.0236904E-1,-1.4613047E-1,3.1835842E-1,-2.792256E-1,-4.0145263E-2,-4.7514716E-1,4.6299848E-1,1.2730186E-1,2.9572812E-1,-2.3086287E-1,1.6875833E-1,9.1750994E-2,-1.574188E-1,1.2761459E-1,1.671927E-1,1.5895383E-1,1.5789257E-1,-1.3312456E-1,1.1518276E-1,-1.7487681E-1,1.730401E-1,4.622195E-2,-1.6166359E-1,1.0156836E-1,1.1561598E-1,-1.346113E-1,-2.1435417E-2,-2.1444096E-1,4.3425284E-2,-1.313934E-1,-2.7606817E-2,-1.6129468E-1,1.4486384E-1,-1.0142929E-1,7.727269E-2,-6.426362E-2,1.1990111E-1,-1.372179E-1,9.417221E-2,-1.0300421E-1],"categories":[],"categories_nodes":[],"categories_segments":[],"categories_sizes":[],"default_left":[0,0,0,0,0,0,0,0,0,0,0,0,0,0,0,0,0,0,0,0,0,0,0,0,0,0,0,0,0,0,0,0,0,0,0,0,0,0,0,0,0,0,0,0,0,0,0,0,0,0,0,0,0,0,0,0,0,0,0,0,0,0,0],"id":18,"left_children":[1,3,-1,5,7,9,11,13,15,17,19,21,23,25,27,29,31,33,35,37,39,41,43,-1,45,47,49,51,53,55,57,59,61,-1,-1,-1,-1,-1,-1,-1,-1,-1,-1,-1,-1,-1,-1,-1,-1,-1,-1,-1,-1,-1,-1,-1,-1,-1,-1,-1,-1,-1,-1],"loss_changes":[9.9170483E2,1.5217249E2,0E0,7.8430176E-2,7.1644714E1,1.3934326E-1,5.296593E-1,3.0624153E1,4.504062E1,5.371256E-1,6.3812256E-2,6.0332584E-1,2.9993498E-1,9.965118E0,1.3866867E1,2.6430862E1,1.6248701E1,3.5742235E-1,1.1683822E0,1.3061523E-2,1.6051937E0,1.5018995E0,6.1479855E-1,0E0,8.042643E-1,6.359063E0,3.2509005E0,7.704842E0,6.090248E0,1.1011063E1,1.6081142E1,6.4153743E0,1.373444E1,0E0,0E0,0E0,0E0,0E0,0E0,0E0,0E0,0E0,0E0,0E0,0E0,0E0,0E0,0E0,0E0,0E0,0E0,0E0,0E0,0E0,0E0,0E0,0E0,0E0,0E0,0E0,0E0,0E0,0E0],"parents":[2147483647,0,0,1,1,3,3,4,4,5,5,6,6,7,7,8,8,9,9,10,10,11,11,12,12,13,13,14,14,15,15,16,16,17,17,18,18,19,19,20,20,21,21,22,22,24,24,25,25,26,26,27,27,28,28,29,29,30,30,31,31,32,32],"right_children":[2,4,-1,6,8,10,12,14,16,18,20,22,24,26,28,30,32,34,36,38,40,42,44,-1,46,48,50,52,54,56,58,60,62,-1,-1,-1,-1,-1,-1,-1,-1,-1,-1,-1,-1,-1,-1,-1,-1,-1,-1,-1,-1,-1,-1,-1,-1,-1,-1,-1,-1,-1,-1],"split_conditions":[4E0,3E0,-1.7511363E-1,6.53E1,9.57E1,5.06E1,3.756E1,3.675E1,2E0,1.436E2,1.057E2,6.64E1,7.04E1,2E0,1.178E2,1.276E2,3.665E1,4.89E1,2.37E1,7.55E1,1.397E2,1.41E2,2E0,1.0236904E-1,7.22E1,6.09E1,2E0,2E0,3E1,3.805E1,5.08E1,9.21E1,2.85E1,1.6875833E-1,9.1750994E-2,-1.574188E-1,1.2761459E-1,1.671927E-1,1.5895383E-1,1.5789257E-1,-1.3312456E-1,1.1518276E-1,-1.7487681E-1,1.730401E-1,4.622195E-2,-1.6166359E-1,1.0156836E-1,1.1561598E-1,-1.346113E-1,-2.1435417E-2,-2.1444096E-1,4.3425284E-2,-1.313934E-1,-2.7606817E-2,-1.6129468E-1,1.4486384E-1,-1.0142929E-1,7.727269E-2,-6.426362E-2,1.1990111E-1,-1.372179E-1,9.417221E-2,-1.0300421E-1],"split_indices":[5,5,0,0,3,1,4,4,7,2,1,0,0,7,2,2,4,1,0,1,2,2,6,0,0,0,6,7,0,4,0,1,0,0,0,0,0,0,0,0,0,0,0,0,0,0,0,0,0,0,0,0,0,0,0,0,0,0,0,0,0,0,0],"split_type":[0,0,0,0,0,0,0,0,0,0,0,0,0,0,0,0,0,0,0,0,0,0,0,0,0,0,0,0,0,0,0,0,0,0,0,0,0,0,0,0,0,0,0,0,0,0,0,0,0,0,0,0,0,0,0,0,0,0,0,0,0,0,0],"sum_hessian":[5.3834995E3,3.5891824E3,1.7943173E3,1.7367777E3,1.8524047E3,1.6860254E3,5.075225E1,5.1308636E2,1.3393182E3,3.7706192E1,1.6483192E3,4.740067E1,3.3515809E0,1.5480347E2,3.5828293E2,1.0393267E3,2.9999152E2,3.436085E1,3.3453405E0,1.6393347E3,8.984478E0,7.3943734E0,4.0006298E1,1.0850587E0,2.2665224E0,1.1931829E2,3.5485176E1,1.028836E2,2.5539932E2,6.8011414E2,3.592126E2,7.861779E1,2.2137373E2,2.082322E1,1.3537632E1,1.207149E0,2.1381915E0,8.449962E2,7.9433856E2,7.669743E0,1.3147348E0,6.2779174E0,1.1164559E0,3.522926E1,4.777037E0,1.1902555E0,1.0762668E0,1.10187386E2,9.130908E0,2.4813137E1,1.067204E1,7.0673584E1,3.221001E1,3.6168034E1,2.192313E2,6.640319E2,1.6082186E1,2.6020184E2,9.901073E1,6.949564E1,9.1221485E0,3.7580074E1,1.8379366E2],"tree_param":{"num_deleted":"0","num_feature":"8","num_nodes":"63","size_leaf_vector":"1"}},{"base_weights":[1.6920177E-2,-4.6101207E-1,1.5578453E-1,-4.6486235E-1,-3.2984972E-1,2.441235E-1,-4.9589473E-1,-3.0260575E-1,-4.685301E-1,-8.635646E-3,-3.9128056E-1,1.0175527E-1,3.9090845E-1,-4.595122E-1,-1.5756221E-1,-1.3232145E-1,-1.498327E-1,-4.919338E-1,-4.4319388E-1,-1.2594189E-1,4.7007176E-1,-4.4984475E-1,5.0840873E-2,3.7283108E-1,-7.501885E-2,5.088304E-1,1.2553184E-1,-3.928701E-1,-5.093283E-1,-2.1754377E-1,9.1263704E-2,-4.5966643E-1,-1.5517813E-1,-3.9301124E-1,-4.697854E-1,2.0442103E-1,2.5163451E-2,-1.5726493E-1,6.2695056E-2,-1.2943386E-1,4.8455593E-1,-2.3506686E-1,1.9557777E-1,5.318484E-1,-1.1536408E-1,6.0494596E-1,-3.7120525E-2,-4.5301935E-1,-2.2970739E-1,-5.179951E-1,2.6121456E-3,-1.4401142E-1,4.7037896E-2,-1.4198466E-1,-6.0759496E-2,-1.361999E-1,-5.058768E-2,-1.4180121E-1,3.161076E-2,1.7841963E-1,-1.0872927E-1,-9.498284E-2,9.349042E-2,5.224265E-2,1.8289168E-1,-9.497154E-2,3.6131535E-2,-4.3825254E-2,1.1227938E-1,1.6389388E-1,-9.606112E-2,5.1355954E-2,-1.4504263E-1,-1.5104943E-2,1.8366128E-1,1.386724E-1,-5.4300267E-2,-1.6174284E-1,-1.0270735E-1,4.85095E-2,-1.0095212E-1,-8.114368E-2,-1.5780815E-1],"categories":[],"categories_nodes":[],"categories_segments":[],"categories_sizes":[],"default_left":[0,0,0,0,0,0,0,0,0,0,0,0,0,0,0,0,0,0,0,0,0,0,0,0,0,0,0,0,0,0,0,0,0,0,0,0,0,0,0,0,0,0,0,0,0,0,0,0,0,0,0,0,0,0,0,0,0,0,0,0,0,0,0,0,0,0,0,0,0,0,0,0,0,0,0,0,0,0,0,0,0,0,0],"id":19,"left_children":[1,3,5,7,9,11,13,15,17,19,21,23,25,27,-1,29,-1,31,33,-1,35,37,-1,39,41,43,45,47,49,51,-1,53,-1,55,57,-1,-1,-1,59,61,63,65,67,69,71,73,75,77,79,81,-1,-1,-1,-1,-1,-1,-1,-1,-1,-1,-1,-1,-1,-1,-1,-1,-1,-1,-1,-1,-1,-1,-1,-1,-1,-1,-1,-1,-1,-1,-1,-1,-1],"loss_changes":[3.0557837E2,3.7017822E-1,2.0550427E2,4.5606995E-1,6.4789534E-1,6.562877E1,2.1321106E-1,7.7288914E-1,3.6341858E-1,1.4415672E0,9.853711E-1,7.653365E1,4.834291E1,4.5778275E-1,0E0,6.160628E-1,0E0,1.7136383E-1,4.5716095E-1,0E0,2.1972692E-1,9.987755E-1,0E0,3.543544E1,4.1933926E1,1.5443939E1,3.723484E1,7.707796E-1,4.984913E-1,1.3477147E0,0E0,7.0635986E-1,0E0,2.2868137E0,5.629883E-1,0E0,0E0,0E0,1.1438369E0,9.633384E0,1.9923538E1,1.76609E1,2.2033054E1,1.2902924E1,4.185893E0,6.061096E-1,2.5752783E1,4.263506E-1,1.1428894E0,7.289314E-2,0E0,0E0,0E0,0E0,0E0,0E0,0E0,0E0,0E0,0E0,0E0,0E0,0E0,0E0,0E0,0E0,0E0,0E0,0E0,0E0,0E0,0E0,0E0,0E0,0E0,0E0,0E0,0E0,0E0,0E0,0E0,0E0,0E0],"parents":[2147483647,0,0,1,1,2,2,3,3,4,4,5,5,6,6,7,7,8,8,9,9,10,10,11,11,12,12,13,13,15,15,17,17,18,18,20,20,21,21,23,23,24,24,25,25,26,26,27,27,28,28,29,29,31,31,33,33,34,34,38,38,39,39,40,40,41,41,42,42,43,43,44,44,45,45,46,46,47,47,48,48,49,49],"right_children":[2,4,6,8,10,12,14,16,18,20,22,24,26,28,-1,30,-1,32,34,-1,36,38,-1,40,42,44,46,48,50,52,-1,54,-1,56,58,-1,-1,-1,60,62,64,66,68,70,72,74,76,78,80,82,-1,-1,-1,-1,-1,-1,-1,-1,-1,-1,-1,-1,-1,-1,-1,-1,-1,-1,-1,-1,-1,-1,-1,-1,-1,-1,-1,-1,-1,-1,-1,-1,-1],"split_conditions":[3E0,6.53E1,6E0,5.06E1,6.64E1,4E0,6.35E1,3.71E1,7.55E1,1.231E2,3.756E1,9.64E1,9.44E1,3.83E1,-1.5756221E-1,1.436E2,-1.498327E-1,3.29E1,3.648E1,-1.2594189E-1,1E0,2E0,5.0840873E-2,3.657E1,4.72E1,1.612E2,5E0,1.091E2,6.32E1,3.04E1,9.1263704E-2,3.2E1,-1.5517813E-1,3.636E1,4E0,2.0442103E-1,2.5163451E-2,-1.5726493E-1,1.092E2,4.85E1,1.181E2,8.85E1,7.46E1,8.59E1,5.85E1,5.2E0,3.732E1,3.79E1,3.751E1,1.215E2,2.6121456E-3,-1.4401142E-1,4.7037896E-2,-1.4198466E-1,-6.0759496E-2,-1.361999E-1,-5.058768E-2,-1.4180121E-1,3.161076E-2,1.7841963E-1,-1.0872927E-1,-9.498284E-2,9.349042E-2,5.224265E-2,1.8289168E-1,-9.497154E-2,3.6131535E-2,-4.3825254E-2,1.1227938E-1,1.6389388E-1,-9.606112E-2,5.1355954E-2,-1.4504263E-1,-1.5104943E-2,1.8366128E-1,1.386724E-1,-5.4300267E-2,-1.6174284E-1,-1.0270735E-1,4.85095E-2,-1.0095212E-1,-8.114368E-2,-1.5780815E-1],"split_indices":[5,0,5,1,0,5,0,0,1,2,4,3,1,4,0,2,0,0,4,0,7,6,0,4,0,2,5,1,0,0,0,0,0,4,7,0,0,0,2,0,2,1,1,0,0,0,4,4,4,2,0,0,0,0,0,0,0,0,0,0,0,0,0,0,0,0,0,0,0,0,0,0,0,0,0,0,0,0,0,0,0,0,0],"split_type":[0,0,0,0,0,0,0,0,0,0,0,0,0,0,0,0,0,0,0,0,0,0,0,0,0,0,0,0,0,0,0,0,0,0,0,0,0,0,0,0,0,0,0,0,0,0,0,0,0,0,0,0,0,0,0,0,0,0,0,0,0,0,0,0,0,0,0,0,0,0,0,0,0,0,0,0,0,0,0,0,0,0,0],"sum_hessian":[4.6022373E3,1.0356162E3,3.566621E3,1.00361096E3,3.2005238E1,3.1414097E3,4.2521124E2,2.4030497E1,9.795805E2,5.3213196E0,2.668392E1,1.5955564E3,1.5458534E3,1.9716652E2,2.2804471E2,1.3780851E1,1.0249645E1,4.9963684E2,4.7994366E2,2.9287791E0,2.3925402E0,2.4339687E1,2.3442323E0,6.2935596E2,9.6620044E2,1.0696359E3,4.7621753E2,8.81411E1,1.0902543E2,1.1949639E1,1.8312119E0,2.2813351E2,2.7150333E2,1.7169884E2,3.082448E2,1.052297E0,1.3402432E0,2.123554E1,3.1041477E0,1.1449214E2,5.1486383E2,6.0719696E2,3.5900348E2,1.0317372E3,3.789866E1,1.199496E2,3.5626794E2,6.310223E1,2.5038866E1,1.0723151E2,1.7939172E0,6.8581576E0,5.0914817E0,2.158626E2,1.2270919E1,1.341998E2,3.7499043E1,3.068835E2,1.3613095E0,1.201517E0,1.9026306E0,8.057909E1,3.3913048E1,1.485658E2,3.6629803E2,4.940403E2,1.1315663E2,1.2334378E2,2.356597E2,1.0148675E3,1.6869677E1,2.1610928E1,1.6287733E1,1.2490178E0,1.18700584E2,7.919505E1,2.7707288E2,3.3307976E1,2.9794254E1,5.257357E0,1.9781507E1,4.4601946E0,1.0277132E2],"tree_param":{"num_deleted":"0","num_feature":"8","num_nodes":"83","size_leaf_vector":"1"}},{"base_weights":[-1.9437604E-2,-4.9243623E-1,3.3865756E-1,-5.06652E-1,-4.0132898E-1,-7.5119436E-3,3.8663062E-1,-5.075855E-1,4.0886875E-2,1.31629E-1,-4.1630325E-1,-1.9956172E-1,6.1185145E-1,4.083602E-1,-2.4168807E-1,-5.084721E-1,-7.912876E-2,-1.5297616E-1,1.6373008E-1,-3.5961685E-1,-4.8904586E-1,-3.225521E-1,3.02133E-1,1.8983653E-1,8.988484E-3,2.4062407E-1,4.7728154E-1,-3.409394E-1,-2.4121301E-2,-1.5304305E-1,-3.7926728E-1,-9.213453E-2,6.125449E-2,-1.0759056E-1,5.582442E-2,-4.093684E-1,-1.8044281E-1,-5.0351E-1,-6.702258E-2,-3.783164E-1,3.980343E-1,-2.5669807E-1,6.14314E-1,3.169498E-2,5.227929E-1,5.064657E-1,1.1382089E-1,1.037754E-2,-4.5380354E-1,-2.927928E-1,5.6465423E-1,6.1794136E-2,-1.3011695E-1,-1.3940565E-1,-6.042414E-2,2.1650207E-1,-9.021804E-2,-1.5563445E-1,-8.401915E-2,6.806581E-2,-8.955951E-2,-1.2379572E-1,6.1016668E-2,2.8007966E-1,-1.3709511E-1,-1.2005542E-1,8.372125E-2,2.4511218E-1,-1.298555E-1,9.801379E-2,-5.731998E-2,-7.363316E-2,1.6220763E-1,1.5815216E-1,5.567623E-3,1.8121697E-1,-4.553995E-2,-1.2466023E-1,1.4043052E-1,-6.933241E-2,-1.475797E-1,6.06342E-2,-1.0965069E-1,2.941324E-1,-9.113915E-2],"categories":[],"categories_nodes":[],"categories_segments":[],"categories_sizes":[],"default_left":[0,0,0,0,0,0,0,0,0,0,0,0,0,0,0,0,0,0,0,0,0,0,0,0,0,0,0,0,0,0,0,0,0,0,0,0,0,0,0,0,0,0,0,0,0,0,0,0,0,0,0,0,0,0,0,0,0,0,0,0,0,0,0,0,0,0,0,0,0,0,0,0,0,0,0,0,0,0,0,0,0,0,0,0,0],"id":20,"left_children":[1,3,5,7,9,11,13,15,-1,17,19,21,23,25,27,29,31,33,-1,35,37,39,41,-1,-1,43,45,47,49,-1,51,-1,-1,-1,-1,53,55,57,59,61,63,65,67,69,71,73,75,77,79,81,83,-1,-1,-1,-1,-1,-1,-1,-1,-1,-1,-1,-1,-1,-1,-1,-1,-1,-1,-1,-1,-1,-1,-1,-1,-1,-1,-1,-1,-1,-1,-1,-1,-1,-1],"loss_changes":[4.454391E2,1.2642517E0,2.4859146E1,6.5519714E-1,1.3137455E0,2.1908474E1,1.8046936E1,3.3018494E-1,0E0,6.8117124E-1,4.5782852E-1,8.770584E0,5.1218224E-1,1.4578903E1,9.54252E-1,1.663208E-2,2.6926553E-1,3.3077037E-1,0E0,7.297468E-1,3.6015034E-1,4.70615E0,5.0757165E0,0E0,0E0,2.1924288E1,9.487274E0,1.2153542E0,2.5443687E0,0E0,6.095617E-1,0E0,0E0,0E0,0E0,7.0900154E-1,2.5369983E0,6.7082405E-2,2.917202E-1,2.195919E0,4.3787236E0,9.4263786E-1,4.2558203E0,1.4185572E1,2.309063E0,8.403259E0,8.968934E0,1.8323876E0,8.2717896E-2,4.6918035E-1,2.1227732E0,0E0,0E0,0E0,0E0,0E0,0E0,0E0,0E0,0E0,0E0,0E0,0E0,0E0,0E0,0E0,0E0,0E0,0E0,0E0,0E0,0E0,0E0,0E0,0E0,0E0,0E0,0E0,0E0,0E0,0E0,0E0,0E0,0E0,0E0],"parents":[2147483647,0,0,1,1,2,2,3,3,4,4,5,5,6,6,7,7,9,9,10,10,11,11,12,12,13,13,14,14,15,15,16,16,17,17,19,19,20,20,21,21,22,22,25,25,26,26,27,27,28,28,30,30,35,35,36,36,37,37,38,38,39,39,40,40,41,41,42,42,43,43,44,44,45,45,46,46,47,47,48,48,49,49,50,50],"right_children":[2,4,6,8,10,12,14,16,-1,18,20,22,24,26,28,30,32,34,-1,36,38,40,42,-1,-1,44,46,48,50,-1,52,-1,-1,-1,-1,54,56,58,60,62,64,66,68,70,72,74,76,78,80,82,84,-1,-1,-1,-1,-1,-1,-1,-1,-1,-1,-1,-1,-1,-1,-1,-1,-1,-1,-1,-1,-1,-1,-1,-1,-1,-1,-1,-1,-1,-1,-1,-1,-1,-1],"split_conditions":[5E0,4E0,8.23E1,1.727E2,1.63E1,6E0,8E0,3.886E1,4.0886875E-2,1.35E1,8.69E1,3E0,9.82E1,5.27E1,7.75E1,4E0,1E0,9.12E1,1.6373008E-1,9.76E1,3.858E1,1.596E2,1.35E2,1.8983653E-1,8.988484E-3,6E0,3.916E1,3.865E1,3.96E1,-1.5304305E-1,1.027E2,-9.213453E-2,6.125449E-2,-1.0759056E-1,5.582442E-2,1.412E2,1.1E2,4E0,9.57E1,3.875E1,9.52E1,6.79E1,9.68E1,9.4E1,8.74E1,9.82E1,7E0,5E0,8.57E1,1.378E2,4.002E1,6.1794136E-2,-1.3011695E-1,-1.3940565E-1,-6.042414E-2,2.1650207E-1,-9.021804E-2,-1.5563445E-1,-8.401915E-2,6.806581E-2,-8.955951E-2,-1.2379572E-1,6.1016668E-2,2.8007966E-1,-1.3709511E-1,-1.2005542E-1,8.372125E-2,2.4511218E-1,-1.298555E-1,9.801379E-2,-5.731998E-2,-7.363316E-2,1.6220763E-1,1.5815216E-1,5.567623E-3,1.8121697E-1,-4.553995E-2,-1.2466023E-1,1.4043052E-1,-6.933241E-2,-1.475797E-1,6.06342E-2,-1.0965069E-1,2.941324E-1,-9.113915E-2],"split_indices":[5,5,1,2,0,5,5,4,0,0,1,6,3,0,0,7,6,1,0,3,4,2,2,0,0,5,4,4,4,0,2,0,0,0,0,2,2,7,3,4,3,0,3,3,3,3,5,7,3,2,4,0,0,0,0,0,0,0,0,0,0,0,0,0,0,0,0,0,0,0,0,0,0,0,0,0,0,0,0,0,0,0,0,0,0],"split_type":[0,0,0,0,0,0,0,0,0,0,0,0,0,0,0,0,0,0,0,0,0,0,0,0,0,0,0,0,0,0,0,0,0,0,0,0,0,0,0,0,0,0,0,0,0,0,0,0,0,0,0,0,0,0,0,0,0,0,0,0,0,0,0,0,0,0,0,0,0,0,0,0,0,0,0,0,0,0,0,0,0,0,0,0,0],"sum_hessian":[2.6278596E3,1.1321099E3,1.4957496E3,9.7536E2,1.5674986E2,1.8215788E2,1.3135918E3,9.7415607E2,1.203922E0,4.070868E0,1.5267899E2,1.3956111E2,4.259677E1,1.2700199E3,4.3571873E1,9.719581E2,2.1979475E0,2.7865214E0,1.2843465E0,8.915025E1,6.3528732E1,1.1237056E2,2.7190552E1,4.1032894E1,1.5638744E0,3.711737E2,8.9884625E2,2.9532463E1,1.403941E1,9.566349E2,1.53231945E1,1.171329E0,1.0266185E0,1.6985228E0,1.0879987E0,6.877003E1,2.0380234E1,6.1236855E1,2.2918763E0,1.0474E2,7.630564E0,9.809114E0,1.7381437E1,2.1390338E2,1.5727032E2,8.3167346E2,6.717279E1,7.4015126E0,2.213095E1,9.985508E0,4.053902E0,1.0675465E0,1.4255648E1,5.3345314E1,1.5424707E1,1.8094922E0,1.8570742E1,5.608218E1,5.154676E0,1.0186436E0,1.2732327E0,9.9176575E1,5.563421E0,4.635244E0,2.9953203E0,7.936634E0,1.8724803E0,1.4746367E1,2.6350703E0,9.182582E1,1.2207756E2,3.2913842E0,1.5397894E2,7.977348E2,3.393866E1,2.3157906E1,4.4014885E1,3.8817365E0,3.5197763E0,4.2674813E0,1.7863468E1,1.051127E0,8.934381E0,2.654201E0,1.3997011E0],"tree_param":{"num_deleted":"0","num_feature":"8","num_nodes":"85","size_leaf_vector":"1"}},{"base_weights":[-1.2881173E-1,-4.7807232E-1,4.456957E-1,-4.975501E-1,-2.2309126E-1,2.0938823E-1,5.543021E-1,5.801089E-2,-4.9952102E-1,-1.2811609E-1,-1.4102009E-1,-4.512521E-2,4.8382398E-1,3.6149293E-1,5.920149E-1,-5.0340503E-1,-2.0058507E-1,-1.819116E-1,1.894377E-1,-2.7971637E-1,5.111084E-1,-6.313107E-2,5.5757743E-1,4.8398647E-1,7.24338E-2,6.9359964E-1,5.271624E-1,-1.5162486E-1,-1.4342804E-1,-1.2586734E-1,1.8431039E-1,-1.3791846E-1,-3.173926E-2,-3.559261E-1,2.602451E-1,-3.1509023E-2,1.6889092E-1,1.9036435E-1,-3.2915273E-1,8.649722E-2,6.7444354E-1,6.37091E-1,1.4843184E-1,-1.3687818E-1,1.4280732E-1,4.0840486E-1,7.854075E-1,2.7237248E-1,5.38921E-1,-1.0398112E-1,7.083323E-2,-8.190129E-2,1.468138E-1,3.1079093E-2,-1.241069E-1,1.1335846E-1,-1.1840405E-1,-3.366712E-2,-1.7969441E-1,-1.2018736E-1,1.1640977E-1,1.4672455E-1,2.5102022E-1,1.2462648E-1,2.3489708E-1,-1.2741804E-1,1.18832335E-1,-9.974528E-2,2.0258419E-1,-1.4452282E-1,1.6828267E-1,1.7331198E-1,2.9530388E-1,1.486074E-1,-7.9659894E-2,6.0342524E-2,1.6398852E-1],"categories":[],"categories_nodes":[],"categories_segments":[],"categories_sizes":[],"default_left":[0,0,0,0,0,0,0,0,0,0,0,0,0,0,0,0,0,0,0,0,0,0,0,0,0,0,0,0,0,0,0,0,0,0,0,0,0,0,0,0,0,0,0,0,0,0,0,0,0,0,0,0,0,0,0,0,0,0,0,0,0,0,0,0,0,0,0,0,0,0,0,0,0,0,0,0,0],"id":21,"left_children":[1,3,5,7,9,11,13,-1,15,17,-1,19,21,23,25,27,29,31,-1,33,35,37,39,41,43,45,47,-1,49,-1,51,-1,53,55,-1,-1,-1,-1,57,59,61,63,65,67,-1,69,71,73,75,-1,-1,-1,-1,-1,-1,-1,-1,-1,-1,-1,-1,-1,-1,-1,-1,-1,-1,-1,-1,-1,-1,-1,-1,-1,-1,-1,-1],"loss_changes":[1.7052333E2,2.5130615E0,8.13319E0,7.639084E-1,8.6183107E-1,7.2034135E0,1.3828506E0,0E0,4.6670532E-1,1.3311517E0,0E0,7.2232003E0,2.034359E0,1.32799E0,8.341255E-1,2.7644348E-1,7.459791E-1,1.1775038E0,0E0,3.701874E0,5.8475065E-1,1.4684849E0,2.35141E0,1.285461E0,1.132409E0,1.4542732E0,1.9870758E-1,0E0,3.9599854E-1,0E0,6.318872E-1,0E0,1.0571414E0,1.2042117E0,0E0,0E0,0E0,0E0,2.589202E-1,1.601901E0,6.4135647E-1,2.614627E-1,1.5480641E0,1.6695188E0,0E0,2.794716E0,1.5056343E0,9.8423713E-1,1.743679E-1,0E0,0E0,0E0,0E0,0E0,0E0,0E0,0E0,0E0,0E0,0E0,0E0,0E0,0E0,0E0,0E0,0E0,0E0,0E0,0E0,0E0,0E0,0E0,0E0,0E0,0E0,0E0,0E0],"parents":[2147483647,0,0,1,1,2,2,3,3,4,4,5,5,6,6,8,8,9,9,11,11,12,12,13,13,14,14,15,15,16,16,17,17,19,19,20,20,21,21,22,22,23,23,24,24,25,25,26,26,28,28,30,30,32,32,33,33,38,38,39,39,40,40,41,41,42,42,43,43,45,45,46,46,47,47,48,48],"right_children":[2,4,6,8,10,12,14,-1,16,18,-1,20,22,24,26,28,30,32,-1,34,36,38,40,42,44,46,48,-1,50,-1,52,-1,54,56,-1,-1,-1,-1,58,60,62,64,66,68,-1,70,72,74,76,-1,-1,-1,-1,-1,-1,-1,-1,-1,-1,-1,-1,-1,-1,-1,-1,-1,-1,-1,-1,-1,-1,-1,-1,-1,-1,-1,-1],"split_conditions":[7E0,6E0,1.099E2,8.71E1,1.086E2,1.557E2,3.847E1,5.801089E-2,3.89E1,1.073E2,-1.4102009E-1,8E0,2E0,9E1,8E0,1.709E2,3E0,9.23E1,1.894377E-1,7E0,1.236E2,8.61E1,3.842E1,1.677E2,8E0,5.87E1,1.346E2,-1.5162486E-1,3.822E1,-1.2586734E-1,9.25E1,-1.3791846E-1,7.08E1,8.5E1,2.602451E-1,-3.1509023E-2,1.6889092E-1,1.9036435E-1,7.9E1,7.04E1,8.87E1,4E0,1.709E2,9.58E1,1.4280732E-1,1.42E2,8.88E1,1.333E2,3.855E1,-1.0398112E-1,7.083323E-2,-8.190129E-2,1.468138E-1,3.1079093E-2,-1.241069E-1,1.1335846E-1,-1.1840405E-1,-3.366712E-2,-1.7969441E-1,-1.2018736E-1,1.1640977E-1,1.4672455E-1,2.5102022E-1,1.2462648E-1,2.3489708E-1,-1.2741804E-1,1.18832335E-1,-9.974528E-2,2.0258419E-1,-1.4452282E-1,1.6828267E-1,1.7331198E-1,2.9530388E-1,1.486074E-1,-7.9659894E-2,6.0342524E-2,1.6398852E-1],"split_indices":[5,5,1,3,1,2,4,0,4,1,0,5,7,3,5,2,6,3,0,6,2,3,4,2,5,0,2,0,4,0,1,0,0,3,0,0,0,0,0,0,3,6,2,3,0,2,3,2,4,0,0,0,0,0,0,0,0,0,0,0,0,0,0,0,0,0,0,0,0,0,0,0,0,0,0,0,0],"split_type":[0,0,0,0,0,0,0,0,0,0,0,0,0,0,0,0,0,0,0,0,0,0,0,0,0,0,0,0,0,0,0,0,0,0,0,0,0,0,0,0,0,0,0,0,0,0,0,0,0,0,0,0,0,0,0,0,0,0,0,0,0,0,0,0,0,0,0,0,0,0,0,0,0,0,0,0,0],"sum_hessian":[8.477808E2,5.2735406E2,3.2042676E2,4.89045E2,3.830902E1,1.0181786E2,2.186089E2,1.1148473E0,4.8793018E2,2.8765795E1,9.543226E0,5.3259884E1,4.855798E1,3.7495594E1,1.811133E2,4.8099664E2,6.933525E0,2.7573463E1,1.1923312E0,3.7810467E1,1.5449416E1,5.78684E0,4.277114E1,2.5861858E1,1.1633735E1,6.679338E1,1.14319916E2,4.779226E2,3.0740407E0,4.3619123E0,2.5716126E0,8.95167E0,1.8621794E1,3.610192E1,1.7085458E0,1.1198492E0,1.4329567E1,1.2150027E0,4.5718374E0,8.847508E0,3.392363E1,1.7141867E1,8.719992E0,8.095868E0,3.5378668E0,1.759237E1,4.9201015E1,6.1091113E0,1.0821081E2,2.0587318E0,1.0153089E0,1.071093E0,1.5005198E0,1.428793E1,4.333864E0,1.3720806E0,3.4729843E1,3.319239E0,1.2525983E0,3.2571158E0,5.5903926E0,1.770981E1,1.6213821E1,8.331249E0,8.810617E0,2.4154456E0,6.3045464E0,7.0004473E0,1.0954204E0,2.2579095E0,1.5334459E1,2.5980335E1,2.322068E1,4.374703E0,1.7344086E0,3.0185382E0,1.0519227E2],"tree_param":{"num_deleted":"0","num_feature":"8","num_nodes":"77","size_leaf_vector":"1"}},{"base_weights":[1.6645836E-2,2.8399387E-1,-5.5314183E-1,5.030571E-1,1.0732071E-1,-4.1370964E-1,-5.5477023E-1,5.05672E-1,4.0991798E-1,2.8098142E-1,-7.0260376E-2,-1.6450933E-1,4.8988167E-2,-5.229291E-1,-5.6405365E-1,3.896255E-1,5.0817865E-1,4.266903E-1,-3.53155E-2,3.6411342E-1,-3.714182E-2,2.892051E-1,-1.7508408E-1,2.1073154E-1,-1.3131085E-1,-5.2564585E-1,4.9912307E-2,-3.1961882E-1,-1.6946474E-1,2.5878727E-1,1.5931784E-1,5.249492E-1,4.8999253E-1,1.6335423E-1,4.7491315E-1,3.9775458E-1,-2.3763199E-1,2.641139E-1,-2.6471227E-1,4.7406355E-1,7.492919E-2,6.819813E-2,-3.2956263E-1,-2.0773739E-1,-5.2806866E-1,-1.3776307E-1,2.730356E-2,9.5478244E-2,-3.5596073E-2,8.2671076E-2,1.5784693E-1,1.4737797E-1,2.057474E-2,1.062704E-1,-1.4610958E-1,1.56722E-1,3.6426015E-2,1.3455352E-1,1.704049E-2,1.11353494E-1,-1.3622063E-1,1.2232057E-1,-2.4196941E-2,1.7914243E-2,-1.3208032E-1,-7.4008196E-3,1.5284617E-1,-4.2975526E-2,1.22586764E-1,9.189747E-2,-5.754147E-2,1.0616442E-1,-1.11305535E-1,-1.1883949E-1,4.693816E-2,-1.2132692E-1,-1.6031715E-1],"categories":[],"categories_nodes":[],"categories_segments":[],"categories_sizes":[],"default_left":[0,0,0,0,0,0,0,0,0,0,0,0,0,0,0,0,0,0,0,0,0,0,0,0,0,0,0,0,0,0,0,0,0,0,0,0,0,0,0,0,0,0,0,0,0,0,0,0,0,0,0,0,0,0,0,0,0,0,0,0,0,0,0,0,0,0,0,0,0,0,0,0,0,0,0,0,0],"id":22,"left_children":[1,3,5,7,9,11,13,15,17,19,21,-1,23,25,27,29,31,33,-1,35,37,39,41,-1,-1,43,-1,45,-1,47,-1,49,51,53,55,57,59,61,63,65,67,69,71,73,75,-1,-1,-1,-1,-1,-1,-1,-1,-1,-1,-1,-1,-1,-1,-1,-1,-1,-1,-1,-1,-1,-1,-1,-1,-1,-1,-1,-1,-1,-1,-1,-1],"loss_changes":[6.9616534E2,1.20331406E2,1.01867676E-1,1.3085938E-1,5.3159073E1,1.3216176E0,1.3061523E-1,1.93573E-1,4.3249464E-1,2.3058243E1,3.218261E1,0E0,2.089197E0,7.217636E-1,4.269409E-2,4.6861792E-1,1.4367676E-1,4.5679617E-1,0E0,1.408152E1,1.2508873E1,7.605549E0,2.4858236E1,0E0,0E0,1.5034485E-1,0E0,3.8727903E-1,0E0,4.6344042E-1,0E0,5.6655884E-2,3.1111145E-1,1.1703515E0,5.248971E-1,1.1305199E1,5.071471E0,3.9238758E0,5.9416223E0,1.8388577E0,6.6496916E0,1.600034E1,1.1588001E1,3.5030085E-1,4.5295715E-2,0E0,0E0,0E0,0E0,0E0,0E0,0E0,0E0,0E0,0E0,0E0,0E0,0E0,0E0,0E0,0E0,0E0,0E0,0E0,0E0,0E0,0E0,0E0,0E0,0E0,0E0,0E0,0E0,0E0,0E0,0E0,0E0],"parents":[2147483647,0,0,1,1,2,2,3,3,4,4,5,5,6,6,7,7,8,8,9,9,10,10,12,12,13,13,14,14,15,15,16,16,17,17,19,19,20,20,21,21,22,22,25,25,27,27,29,29,31,31,32,32,33,33,34,34,35,35,36,36,37,37,38,38,39,39,40,40,41,41,42,42,43,43,44,44],"right_children":[2,4,6,8,10,12,14,16,18,20,22,-1,24,26,28,30,32,34,-1,36,38,40,42,-1,-1,44,-1,46,-1,48,-1,50,52,54,56,58,60,62,64,66,68,70,72,74,76,-1,-1,-1,-1,-1,-1,-1,-1,-1,-1,-1,-1,-1,-1,-1,-1,-1,-1,-1,-1,-1,-1,-1,-1,-1,-1,-1,-1,-1,-1,-1,-1],"split_conditions":[4E0,3E0,1.011E2,6.53E1,1E0,6.68E1,5E0,5.06E1,3.777E1,1.352E2,3.657E1,-1.6450933E-1,8.32E1,1.689E2,1.039E2,3.71E1,7.55E1,6.64E1,-3.53155E-2,3E0,1E0,4.06E1,1.215E2,2.1073154E-1,-1.3131085E-1,9E1,4.9912307E-2,3E0,-1.6946474E-1,1.436E2,1.5931784E-1,9.16E1,4E0,1.41E2,2E0,9.05E1,7.15E1,8.45E1,3.57E1,9.37E1,9.84E1,7.97E1,1.96E1,9.3E1,6.54E1,-1.3776307E-1,2.730356E-2,9.5478244E-2,-3.5596073E-2,8.2671076E-2,1.5784693E-1,1.4737797E-1,2.057474E-2,1.062704E-1,-1.4610958E-1,1.56722E-1,3.6426015E-2,1.3455352E-1,1.704049E-2,1.11353494E-1,-1.3622063E-1,1.2232057E-1,-2.4196941E-2,1.7914243E-2,-1.3208032E-1,-7.4008196E-3,1.5284617E-1,-4.2975526E-2,1.22586764E-1,9.189747E-2,-5.754147E-2,1.0616442E-1,-1.11305535E-1,-1.1883949E-1,4.693816E-2,-1.2132692E-1,-1.6031715E-1],"split_indices":[5,5,2,0,6,0,5,1,4,2,4,0,1,2,2,0,1,0,0,7,7,0,2,0,0,3,0,7,0,2,0,3,7,2,6,1,1,1,0,3,3,1,0,1,1,0,0,0,0,0,0,0,0,0,0,0,0,0,0,0,0,0,0,0,0,0,0,0,0,0,0,0,0,0,0,0,0],"split_type":[0,0,0,0,0,0,0,0,0,0,0,0,0,0,0,0,0,0,0,0,0,0,0,0,0,0,0,0,0,0,0,0,0,0,0,0,0,0,0,0,0,0,0,0,0,0,0,0,0,0,0,0,0,0,0,0,0,0,0,0,0,0,0,0,0,0,0,0,0,0,0,0,0,0,0,0,0],"sum_hessian":[4.568033E3,3.1095254E3,1.4585077E3,1.3873966E3,1.7221289E3,1.9781086E1,1.4387267E3,1.3452013E3,4.2195305E1,8.7038074E2,8.517481E2,1.5178638E1,4.6024485E0,3.3771823E2,1.1010084E3,3.1750639E1,1.3134507E3,4.108076E1,1.1145464E0,6.8994086E2,1.8043993E2,1.9190413E2,6.5984393E2,1.7754141E0,2.8270345E0,3.3662888E2,1.0893307E0,5.0272593E0,1.0959812E3,1.7963053E1,1.3787586E1,6.688225E2,6.446282E2,7.0375357E0,3.4043224E1,6.537323E2,3.620855E1,7.757985E1,1.02860085E2,1.0237316E2,8.9530975E1,2.5648083E2,4.0336313E2,3.2021601E0,3.3342673E2,3.663553E0,1.3637065E0,1.5653341E1,2.3097115E0,4.3266106E0,6.644959E2,6.425301E2,2.0980752E0,5.7927737E0,1.2447618E0,2.9589846E1,4.4533777E0,5.687481E2,8.498415E1,9.308872E0,2.6899675E1,5.463702E1,2.2942825E1,3.6348293E1,6.651179E1,6.809216E0,9.556394E1,5.44804E1,3.5050575E1,1.3377933E2,1.227015E2,2.263667E1,3.8072647E2,2.0526648E0,1.1494954E0,1.9378885E1,3.1404785E2],"tree_param":{"num_deleted":"0","num_feature":"8","num_nodes":"77","size_leaf_vector":"1"}},{"base_weights":[2.0732868E-2,-4.276407E-1,1.3353083E-1,-3.2231882E-1,-4.3449205E-1,2.0508645E-1,-4.7167972E-1,-2.319703E-1,-1.5187515E-1,-4.3958423E-1,-2.837861E-1,-1.0019198E-1,2.5455895E-1,-4.2010257E-1,-1.5079379E-1,-3.6482215E-1,4.517919E-1,-4.4160137E-1,-7.340276E-2,-1.0455801E-1,-4.4442552E-1,-2.6667145E-1,5.9640104E-1,-1.2880823E-1,2.7924746E-1,-4.3253917E-1,1.2362826E-1,-4.147176E-1,1.24625996E-1,3.3732665E-1,-1.6413175E-2,-2.8775603E-1,-4.4582736E-1,-1.2281103E-1,2.0177674E-1,-2.0362815E-1,1.3330606E-1,-1.5095639E-1,4.4172637E-2,1.794193E-1,-3.3165503E-1,6.251274E-1,2.76844E-1,-2.7130154E-1,4.1065305E-1,-2.6428053E-1,2.9252452E-1,-3.136762E-1,-4.807402E-1,-1.0449242E-1,2.1235918E-1,4.6219067E-3,-1.3290335E-1,1.9368559E-1,-9.9964E-2,-1.1530501E-1,1.6517772E-1,6.495421E-2,-1.338382E-1,-8.5532315E-2,-1.3496077E-1,-9.2300504E-2,6.868375E-2,-1.4101395E-1,1.3003522E-1,-1.2122508E-1,-4.4412236E-3,8.500354E-2,1.9149382E-1,-1.6437717E-1,1.4611696E-1,-9.491693E-2,1.2183882E-1,1.438198E-1,-1.184792E-1,1.7236443E-1,-1.302637E-1,1.7375639E-2,9.7437195E-2,-1.0726886E-1,2.0838267E-1,-2.7845075E-2,-1.5000464E-1],"categories":[],"categories_nodes":[],"categories_segments":[],"categories_sizes":[],"default_left":[0,0,0,0,0,0,0,0,0,0,0,0,0,0,0,0,0,0,0,0,0,0,0,0,0,0,0,0,0,0,0,0,0,0,0,0,0,0,0,0,0,0,0,0,0,0,0,0,0,0,0,0,0,0,0,0,0,0,0,0,0,0,0,0,0,0,0,0,0,0,0,0,0,0,0,0,0,0,0,0,0,0,0],"id":23,"left_children":[1,3,5,7,9,11,13,15,-1,17,19,21,23,25,-1,27,29,31,33,35,37,39,41,43,45,47,49,51,53,-1,55,57,59,-1,-1,61,-1,-1,-1,63,65,67,69,71,73,75,77,79,81,-1,-1,-1,-1,-1,-1,-1,-1,-1,-1,-1,-1,-1,-1,-1,-1,-1,-1,-1,-1,-1,-1,-1,-1,-1,-1,-1,-1,-1,-1,-1,-1,-1,-1],"loss_changes":[2.0588344E2,4.5040894E-1,1.4094653E2,7.7746344E-1,4.6266174E-1,4.3963234E1,3.3854675E-1,3.6129227E0,0E0,5.131073E-1,7.550299E-1,4.7292072E1,2.373381E1,9.677944E-1,0E0,8.4137726E-1,2.1039286E0,3.491516E-1,1.5900329E0,8.771304E-1,5.738027E-1,9.588739E0,5.4943466E-1,1.180874E1,1.7054962E1,6.078224E-1,1.2946298E0,3.667555E-1,1.1121022E0,0E0,1.2317693E0,1.889686E0,3.3480835E-1,0E0,0E0,6.527899E-1,0E0,0E0,0E0,7.2067614E0,6.5867615E0,1.409874E-1,1.7035582E0,3.8236446E0,1.9722443E0,8.320865E0,1.736908E1,2.0661807E0,6.439686E-1,0E0,0E0,0E0,0E0,0E0,0E0,0E0,0E0,0E0,0E0,0E0,0E0,0E0,0E0,0E0,0E0,0E0,0E0,0E0,0E0,0E0,0E0,0E0,0E0,0E0,0E0,0E0,0E0,0E0,0E0,0E0,0E0,0E0,0E0],"parents":[2147483647,0,0,1,1,2,2,3,3,4,4,5,5,6,6,7,7,9,9,10,10,11,11,12,12,13,13,15,15,16,16,17,17,18,18,19,19,20,20,21,21,22,22,23,23,24,24,25,25,26,26,27,27,28,28,30,30,31,31,32,32,35,35,39,39,40,40,41,41,42,42,43,43,44,44,45,45,46,46,47,47,48,48],"right_children":[2,4,6,8,10,12,14,16,-1,18,20,22,24,26,-1,28,30,32,34,36,38,40,42,44,46,48,50,52,54,-1,56,58,60,-1,-1,62,-1,-1,-1,64,66,68,70,72,74,76,78,80,82,-1,-1,-1,-1,-1,-1,-1,-1,-1,-1,-1,-1,-1,-1,-1,-1,-1,-1,-1,-1,-1,-1,-1,-1,-1,-1,-1,-1,-1,-1,-1,-1,-1,-1],"split_conditions":[3E0,1.21E1,6E0,8.14E1,6.53E1,3.655E1,6.01E1,7.88E1,-1.5187515E-1,1.057E2,2E0,4E0,2.21E1,5.98E1,-1.5079379E-1,1.44E2,1.083E2,9.26E1,1.352E2,2E0,1.467E2,9.46E1,1.49E2,4E0,9.02E1,3.801E1,1.533E2,3.584E1,3.644E1,3.3732665E-1,1.259E2,2.76E1,5.06E1,-1.2281103E-1,2.0177674E-1,3.752E1,1.3330606E-1,-1.5095639E-1,4.4172637E-2,2.85E1,1.346E2,6.51E1,1.507E2,3E0,2.17E1,5E0,6.89E1,3.8E1,1.215E2,-1.0449242E-1,2.1235918E-1,4.6219067E-3,-1.3290335E-1,1.9368559E-1,-9.9964E-2,-1.1530501E-1,1.6517772E-1,6.495421E-2,-1.338382E-1,-8.5532315E-2,-1.3496077E-1,-9.2300504E-2,6.868375E-2,-1.4101395E-1,1.3003522E-1,